
\data\
ngram 1=2306
ngram 2=10319
ngram 3=14796
ngram 4=15218
ngram 5=14170

\1-grams:
-99	<s>	-0.9399067
-1.064551	</s>
-3.337681	MORNING	-0.3590219
-2.990894	ROOM	-0.4771213
-1.857355	IN	-0.6232494
-2.87695	ALGERNON	-0.4771213
-2.37811	S	-0.354404
-4.291924	FLAT	-0.30103
-3.291924	HALF	-0.4259688
-4.291924	MOON	-0.30103
-3.814802	STREET	-0.30103
-1.557124	THE	-0.4515229
-1.689864	IS	-0.566386
-4.291924	LUXURIOUSLY	-0.30103
-1.953467	AND	-0.4361879
-4.291924	ARTISTICALLY	-0.30103
-4.291924	FURNISHED	-0.30103
-4.291924	SOUND	-0.30103
-1.715582	OF	-0.5395844
-1.72255	A	-0.4687029
-3.990894	PIANO	-0.4771213
-3.689864	HEARD	-0.3679768
-4.291924	ADJOINING	-0.30103
-2.930196	DID	-0.4900863
-1.55953	YOU	-0.6286966
-3.250531	HEAR	-0.4101745
-2.323441	WHAT	-0.4249983
-1.376524	I	-0.7772729
-2.342534	WAS	-0.4229423
-4.291924	PLAYING	-0.30103
-3.291924	LANE	-0.4771212
-3.513773	DIDN	-0.8450981
-2.07444	T	-0.5091662
-2.499532	THINK	-0.6127839
-1.863789	IT	-0.6343405
-4.291924	POLITE	-0.30103
-1.56357	TO	-0.6008452
-3.990894	LISTEN	-0.30103
-3.036651	SIR	-0.6627578
-3.115833	M	-0.3735807
-3.592954	SORRY	-0.3521825
-2.148909	FOR	-0.5108044
-1.781379	THAT	-0.5931663
-2.16159	YOUR	-0.4068338
-3.592954	SAKE	-0.3521825
-2.41111	DON	-1.886491
-3.689864	PLAY	-0.3679768
-3.990894	ACCURATELY	-0.30103
-2.440665	ANY	-0.4172452
-2.223738	ONE	-0.5237465
-2.528496	CAN	-0.4405275
-2.238845	BUT	-0.5991933
-2.357425	WITH	-0.4401377
-3.446826	WONDERFUL	-0.3357921
-3.814802	EXPRESSION	-0.30103
-2.309653	AS	-0.5026753
-3.291924	FAR	-0.4771213
-3.814802	CONCERNED	-0.30103
-4.291924	SENTIMENT	-0.30103
-2.027106	MY	-0.4968653
-3.990894	FORTE	-0.30103
-3.446826	KEEP	-0.4393327
-3.814802	SCIENCE	-0.30103
-2.786774	LIFE	-0.4436975
-3.814802	SPEAKING	-0.30103
-1.984428	HAVE	-0.552622
-3.061475	GOT	-0.49485
-3.592954	CUCUMBER	-0.7781513
-3.592954	SANDWICHES	-0.4259687
-4.291924	CUT	-0.30103
-2.67914	LADY	-0.6184504
-2.800562	BRACKNELL	-0.5818566
-2.689864	OH	-0.4376126
-2.760445	BY	-0.4455223
-2.911713	WAY	-0.4149734
-2.844766	SEE	-0.3565473
-2.700859	FROM	-0.4191293
-3.990894	BOOK	-0.30103
-2.352405	ON	-0.5513065
-3.814802	THURSDAY	-0.39794
-3.337681	NIGHT	-0.3273589
-2.814803	WHEN	-0.4416489
-3.446826	LORD	-0.6532125
-4.291924	SHOREMAN	-0.30103
-2.399829	MR	-0.9852768
-2.528496	WORTHING	-0.5606673
-2.87695	WERE	-0.3388186
-3.689864	DINING	-0.4771213
-2.124606	ME	-0.5228787
-3.689864	EIGHT	-0.3679768
-3.990894	BOTTLES	-0.30103
-3.814802	CHAMPAGNE	-0.30103
-2.136588	ARE	-0.4253371
-4.291924	ENTERED	-0.30103
-3.592954	HAVING	-0.3521825
-2.485744	BEEN	-0.3679768
-4.291924	CONSUMED	-0.30103
-2.648471	YES	-0.4771213
-3.990894	PINT	-0.30103
-2.814803	WHY	-0.4114425
-2.191553	AT	-0.6627578
-4.291924	BACHELOR	-0.30103
-4.291924	ESTABLISHMENT	-0.30103
-4.291924	SERVANTS	-0.30103
-3.990894	INVARIABLY	-0.30103
-3.990894	DRINK	-0.30103
-3.036651	ASK	-0.447158
-3.388834	MERELY	-0.30103
-3.990894	INFORMATION	-0.4771213
-4.291924	ATTRIBUTE	-0.30103
-4.291924	SUPERIOR	-0.30103
-4.291924	QUALITY	-0.30103
-3.990894	WINE	-0.30103
-3.145796	OFTEN	-0.3357921
-4.291924	OBSERVED	-0.30103
-2.829526	MARRIED	-0.4673614
-4.291924	HOUSEHOLDS	-0.30103
-3.689864	RARELY	-0.30103
-2.949501	FIRST	-0.4301247
-3.446826	RATE	-0.30103
-4.291924	BRAND	-0.30103
-3.446826	MARRIAGE	-0.30103
-2.440665	SO	-0.3889852
-4.291924	DEMORALISING	-0.30103
-3.212743	BELIEVE	-0.3203352
-2.362505	VERY	-0.4156032
-3.388834	PLEASANT	-0.3309932
-3.513773	STATE	-0.39794
-2.499532	HAD	-0.4592097
-2.760445	LITTLE	-0.372912
-3.990894	EXPERIENCE	-0.30103
-3.036651	MYSELF	-0.447158
-2.844766	UP	-0.4988405
-3.087804	PRESENT	-0.4771213
-2.844766	ONLY	-0.3802112
-3.115833	ONCE	-0.4973246
-4.291924	CONSEQUENCE	-0.30103
-3.990894	MISUNDERSTANDING	-0.30103
-3.513773	BETWEEN	-0.3424227
-2.893984	YOUNG	-0.4890205
-3.592954	PERSON	-0.3521825
-2.551561	KNOW	-0.47192
-2.2585	AM	-0.5118834
-2.747856	MUCH	-0.3703565
-3.513773	INTERESTED	-0.60206
-3.592954	FAMILY	-0.3521825
-2.453075	NO	-0.4036923
-2.136588	NOT	-0.4317466
-3.814802	INTERESTING	-0.30103
-3.337681	SUBJECT	-0.447158
-2.551561	NEVER	-0.3577576
-3.990894	NATURAL	-0.30103
-3.115833	SURE	-0.39794
-2.446826	WILL	-0.41961
-2.405433	DO	-0.5629079
-3.212743	THANK	-1.113943
-3.689864	VIEWS	-0.3679768
-3.036651	SEEM	-0.7403627
-3.388834	SOMEWHAT	-0.3309932
-4.291924	LAX	-0.30103
-2.800562	REALLY	-0.3409015
-2.405433	IF	-0.7035176
-4.291924	LOWER	-0.30103
-3.990894	ORDERS	-0.30103
-3.990894	SET	-0.30103
-2.86056	US	-0.4130037
-2.814803	GOOD	-0.3332147
-4.291924	EXAMPLE	-0.30103
-3.212743	EARTH	-0.4336556
-3.814802	USE	-0.30103
-2.86056	THEM	-0.60206
-2.71214	THEY	-0.462398
-3.814802	CLASS	-0.39794
-3.513773	ABSOLUTELY	-0.3424227
-3.446826	SENSE	-0.5228788
-3.513773	MORAL	-0.39794
-3.990894	RESPONSIBILITY	-0.4771213
-2.394297	ERNEST	-0.6618987
-2.786774	HOW	-0.3484546
-2.492583	DEAR	-0.5013899
-4.291924	BRINGS	-0.30103
-2.949501	TOWN	-0.4522977
-3.177981	PLEASURE	-0.455932
-3.177981	ELSE	-0.5006023
-2.638711	SHOULD	-0.3894519
-3.814802	BRING	-0.30103
-3.592954	ANYWHERE	-0.30103
-3.446826	EATING	-0.4393327
-3.689864	USUAL	-0.30103
-2.969705	ALGY	-0.5228787
-4.291924	CUSTOMARY	-0.30103
-3.592954	SOCIETY	-0.30103
-3.145796	TAKE	-0.3565474
-2.67914	SOME	-0.391691
-3.513773	SLIGHT	-0.3424227
-4.291924	REFRESHMENT	-0.30103
-3.115833	FIVE	-0.3521825
-4.291924	O	-0.30103
-4.291924	CLOCK	-0.30103
-3.177981	WHERE	-0.4191293
-3.291924	SINCE	-0.3853509
-3.036651	LAST	-0.39794
-3.036651	COUNTRY	-0.447158
-2.499532	THERE	-0.5968588
-3.990894	AMUSES	-0.30103
-4.291924	ONESELF	-0.30103
-3.087804	OTHER	-0.3679768
-2.814803	PEOPLE	-0.4416489
-3.814802	EXCESSIVELY	-0.39794
-4.291924	BORING	-0.30103
-2.629166	WHO	-0.4771213
-3.990894	AMUSE	-0.30103
-3.814802	NEIGHBOURS	-0.30103
-3.446826	NICE	-0.30103
-3.446826	PART	-0.3802113
-3.689864	SHROPSHIRE	-0.3679768
-3.01317	SPEAK	-0.4121805
-3.990894	IMMENSELY	-0.30103
-2.735621	MUST	-0.5118834
-3.990894	COUNTY	-0.30103
-2.829526	COURSE	-0.4673614
-2.337681	ALL	-0.5274264
-3.291924	THESE	-0.30103
-4.291924	CUPS	-0.30103
-3.061475	SUCH	-0.49485
-3.990894	RECKLESS	-0.30103
-3.990894	EXTRAVAGANCE	-0.30103
-3.592954	COMING	-0.3521825
-3.177981	TEA	-0.455932
-2.747856	AUNT	-0.6213651
-2.930196	AUGUSTA	-0.5882717
-2.575921	GWENDOLEN	-0.4366926
-2.87695	PERFECTLY	-0.3744589
-3.592954	DELIGHTFUL	-0.3521825
-2.47901	WELL	-0.4403984
-3.115833	AFRAID	-0.4973246
-3.145796	WON	-1.176091
-2.499532	QUITE	-0.3937841
-3.592954	APPROVE	-0.5440681
-3.036651	BEING	-0.3590219
-2.760445	HERE	-0.4771213
-2.689864	MAY	-0.5081555
-3.212743	FELLOW	-0.39794
-3.814802	FLIRT	-0.60206
-3.814802	DISGRACEFUL	-0.39794
-3.446826	ALMOST	-0.3357921
-3.177981	BAD	-0.3388186
-3.990894	FLIRTS	-0.4771213
-2.930196	LOVE	-0.5509075
-2.893984	COME	-0.4086639
-4.291924	EXPRESSLY	-0.30103
-3.388834	PROPOSE	-0.4771212
-2.610683	HER	-0.4240927
-3.446826	THOUGHT	-0.3802112
-3.115833	CALL	-0.39794
-3.337681	BUSINESS	-0.3590219
-3.990894	UTTERLY	-0.30103
-4.291924	UNROMANTIC	-0.30103
-3.036651	ANYTHING	-0.3590219
-3.513773	ROMANTIC	-0.30103
-3.990894	PROPOSING	-0.30103
-2.101592	BE	-0.4475186
-2.990894	NOTHING	-0.4045706
-2.485744	ABOUT	-0.4597472
-3.689864	DEFINITE	-0.30103
-3.990894	PROPOSAL	-0.30103
-3.990894	ACCEPTED	-0.30103
-3.291924	USUALLY	-0.3245111
-3.036651	THEN	-0.39794
-4.291924	EXCITEMENT	-0.30103
-3.145796	OVER	-0.3802112
-4.291924	ESSENCE	-0.30103
-3.990894	ROMANCE	-0.30103
-4.291924	UNCERTAINTY	-0.30103
-2.814803	EVER	-0.39794
-3.087804	GET	-0.3899711
-3.177981	LL	-0.3187588
-3.036651	CERTAINLY	-0.3136191
-3.592954	TRY	-0.3521825
-3.990894	FORGET	-0.30103
-2.829526	FACT	-0.5093059
-3.337681	DOUBT	-0.3273589
-4.291924	DIVORCE	-0.30103
-3.814802	COURT	-0.30103
-3.689864	SPECIALLY	-0.30103
-3.814802	INVENTED	-0.30103
-3.337681	WHOSE	-0.30103
-4.291924	MEMORIES	-0.30103
-3.990894	CURIOUSLY	-0.30103
-4.291924	CONSTITUTED	-0.30103
-4.291924	SPECULATING	-0.30103
-4.291924	DIVORCES	-0.30103
-3.388834	MADE	-0.4149734
-3.814802	HEAVEN	-0.39794
-3.689864	PLEASE	-0.30103
-3.990894	TOUCH	-0.30103
-3.990894	ORDERED	-0.30103
-2.747856	TIME	-0.5228787
-3.689864	DIFFERENT	-0.30103
-3.087804	MATTER	-0.4149734
-2.668674	SHE	-0.5404031
-3.446826	BREAD	-0.90309
-3.388834	BUTTER	-0.3679768
-4.291924	DEVOTED	-0.30103
-3.087804	TOO	-0.4149734
-3.513773	NEED	-0.4771213
-3.388834	EAT	-0.4149733
-3.145796	GOING	-0.90309
-3.814802	BEHAVE	-0.39794
-3.291924	ALREADY	-0.4771213
-2.67914	SAY	-0.4842999
-3.036651	PLACE	-0.39794
-3.814802	GIRLS	-0.30103
-3.291924	MARRY	-0.3245111
-3.250531	MEN	-0.3222193
-3.087804	RIGHT	-0.4771213
-3.337681	NONSENSE	-0.5118834
-3.177981	GREAT	-0.3388186
-3.291924	TRUTH	-0.3521825
-3.689864	ACCOUNTS	-0.3679768
-3.689864	EXTRAORDINARY	-0.30103
-3.689864	NUMBER	-0.3679768
-4.291924	BACHELORS	-0.30103
-4.291924	SEES	-0.30103
-3.990894	SECOND	-0.4771213
-3.145796	GIVE	-0.4074853
-3.446826	CONSENT	-0.3802112
-3.250531	COUSIN	-0.5740313
-3.145796	BEFORE	-0.4771213
-3.337681	ALLOW	-0.327359
-3.990894	CLEAR	-0.30103
-3.337681	WHOLE	-0.3590219
-3.212743	QUESTION	-0.5314789
-2.499532	CECILY	-0.6297314
-2.930196	MEAN	-0.4220737
-2.551561	NAME	-0.6080504
-3.337681	CIGARETTE	-1
-3.061475	CASE	-0.3631779
-3.337681	LEFT	-0.447158
-3.990894	SMOKING	-0.30103
-2.362505	HE	-0.4545135
-3.990894	DINED	-0.30103
-2.428601	THIS	-0.4015442
-3.087804	WISH	-0.4149734
-3.689864	GOODNESS	-0.3679768
-3.212743	LET	-0.4771213
-4.291924	WRITING	-0.30103
-3.990894	FRANTIC	-0.30103
-3.689864	LETTERS	-0.3679768
-4.291924	SCOTLAND	-0.30103
-4.291924	YARD	-0.30103
-3.513773	NEARLY	-0.3424227
-3.990894	OFFERING	-0.4771213
-3.513773	LARGE	-0.3424227
-3.990894	REWARD	-0.30103
-2.47238	WOULD	-0.4301247
-3.689864	OFFER	-0.3679768
-3.990894	HAPPEN	-0.4771213
-2.814803	MORE	-0.4973246
-2.930196	THAN	-0.4423591
-3.513773	HARD	-0.3424227
-2.71214	NOW	-0.5099138
-2.893984	THING	-0.4890205
-3.513773	FOUND	-0.39794
-3.212743	RATHER	-0.30103
-3.212743	HOWEVER	-0.39794
-3.388834	MAKES	-0.4149734
-3.177981	LOOK	-0.3881802
-4.291924	INSCRIPTION	-0.30103
-3.990894	INSIDE	-0.30103
-3.592954	FIND	-0.30103
-3.115833	ISN	-1.20412
-3.689864	YOURS	-0.3679768
-2.911713	AFTER	-0.4336555
-3.689864	MINE	-0.4771213
-3.592954	SEEN	-0.3521825
-3.592954	HUNDRED	-0.4259687
-3.990894	TIMES	-0.30103
-3.814802	WHATSOEVER	-0.39794
-3.388834	READ	-0.3309932
-3.689864	WRITTEN	-0.30103
-4.291924	UNGENTLEMANLY	-0.30103
-3.990894	PRIVATE	-0.30103
-3.337681	ABSURD	-0.5118834
-3.990894	FAST	-0.30103
-4.291924	RULE	-0.30103
-3.689864	SHOULDN	-0.69897
-3.388834	MODERN	-0.3309932
-3.990894	CULTURE	-0.30103
-3.592954	DEPENDS	-0.7781513
-3.592954	AWARE	-0.4259688
-4.291924	DISCUSS	-0.30103
-3.689864	SORT	-0.69897
-3.036651	TALK	-0.552842
-3.592954	SIMPLY	-0.3521825
-3.177981	WANT	-0.5563025
-3.061475	BACK	-0.49485
-3.145796	SAID	-0.3565473
-4.291924	HAPPENS	-0.30103
-3.513773	CHARMING	-0.3424226
-3.036651	OLD	-0.39794
-3.592954	LIVES	-0.544068
-3.814802	TUNBRIDGE	-0.60206
-3.814802	WELLS	-0.39794
-2.969705	JUST	-0.4175356
-2.990894	DOES	-0.4771213
-3.689864	HERSELF	-0.3679768
-3.990894	FONDEST	-0.4771213
-3.990894	AUNTS	-0.4771213
-3.814802	TALL	-0.30103
-3.592954	SURELY	-0.30103
-2.536049	AN	-0.3784422
-3.592954	ALLOWED	-0.7781513
-4.291924	DECIDE	-0.30103
-3.250531	EVERY	-0.4101745
-3.513773	EXACTLY	-0.3424227
-2.601728	LIKE	-0.4393327
-2.893984	UNCLE	-0.7132104
-2.735621	JACK	-0.4616091
-3.990894	OBJECTION	-0.30103
-3.446826	ADMIT	-0.3802112
-3.513773	SMALL	-0.3424227
-4.291924	SIZE	-0.30103
-2.77341	OWN	-0.3756636
-3.446826	NEPHEW	-0.3357921
-3.061475	MAKE	-0.3832168
-2.814803	OUT	-0.4973246
-3.337681	BESIDES	-0.39794
-2.648471	ALWAYS	-0.3280135
-3.177981	TOLD	-0.4191293
-3.990894	INTRODUCED	-0.30103
-3.689864	ANSWER	-0.3679768
-2.949501	MOST	-0.3112492
-3.990894	EARNEST	-0.30103
-3.513773	LOOKING	-0.39794
-3.513773	SAW	-0.3424227
-3.990894	SAYING	-0.30103
-4.291924	CARDS	-0.30103
-3.814802	B	-0.39794
-3.689864	ALBANY	-0.3679768
-3.990894	PROOF	-0.30103
-4.291924	ATTEMPT	-0.30103
-3.592954	DENY	-0.4259688
-2.814803	OR	-0.3332146
-3.513773	GIVEN	-0.3424227
-4.291924	ACCOUNT	-0.30103
-3.814802	CALLS	-0.39794
-3.177981	BOY	-0.3881802
-3.145796	BETTER	-0.3174204
-3.814802	DENTIST	-0.39794
-3.689864	VULGAR	-0.3679768
-3.592954	PRODUCES	-0.3521825
-3.814802	FALSE	-0.30103
-3.990894	IMPRESSION	-0.30103
-4.291924	DENTISTS	-0.30103
-2.87695	GO	-0.455932
-3.01317	TELL	-0.6197888
-3.513773	MENTION	-0.3424227
-3.990894	SUSPECTED	-0.30103
-3.990894	CONFIRMED	-0.30103
-3.990894	SECRET	-0.30103
-3.388834	BUNBURYIST	-0.3679768
-4.291924	REVEAL	-0.30103
-3.990894	MEANING	-0.4771213
-3.990894	INCOMPARABLE	-0.30103
-3.513773	SOON	-0.4771212
-2.969705	KIND	-0.559308
-3.337681	ENOUGH	-0.5118834
-3.814802	INFORM	-0.39794
-3.513773	PRODUCE	-0.30103
-3.689864	EXPLANATION	-0.30103
-3.291924	PRAY	-0.30103
-3.990894	IMPROBABLE	-0.30103
-3.689864	ORDINARY	-0.3679768
-3.689864	THOMAS	-0.69897
-2.86056	CARDEW	-0.39794
-4.291924	ADOPTED	-0.30103
-2.567648	HIS	-0.3792578
-3.177981	GUARDIAN	-0.3617278
-3.814802	GRAND	-0.39794
-3.592954	DAUGHTER	-0.30103
-2.453075	MISS	-1.035716
-3.990894	ADDRESSES	-0.30103
-3.990894	MOTIVES	-0.30103
-3.689864	RESPECT	-0.30103
-2.969705	COULD	-0.39794
-3.446826	POSSIBLY	-0.30103
-4.291924	APPRECIATE	-0.30103
-3.250531	UNDER	-0.4522977
-3.990894	CHARGE	-0.4771213
-3.814802	ADMIRABLE	-0.30103
-3.990894	GOVERNESS	-0.30103
-2.86056	PRISM	-0.4130038
-4.291924	INVITED	-0.30103
-3.814802	CANDIDLY	-0.30103
-4.291924	BUNBURYED	-0.30103
-3.291924	TWO	-0.30103
-4.291924	SEPARATE	-0.30103
-4.291924	OCCASIONS	-0.30103
-3.689864	WHETHER	-0.30103
-3.446826	ABLE	-0.90309
-3.446826	UNDERSTAND	-0.3802112
-3.814802	REAL	-0.30103
-3.061475	HARDLY	-0.3832168
-3.087804	SERIOUS	-0.3899711
-3.689864	PLACED	-0.3679768
-3.388834	POSITION	-0.3679768
-2.459415	HAS	-0.4771213
-3.990894	ADOPT	-0.4771213
-3.592954	HIGH	-0.3521825
-3.990894	TONE	-0.30103
-4.291924	SUBJECTS	-0.30103
-3.388834	DUTY	-0.4149734
-4.291924	CONDUCE	-0.30103
-3.337681	EITHER	-0.30103
-3.446826	HEALTH	-0.3357921
-3.814802	HAPPINESS	-0.30103
-3.337681	ORDER	-0.5118834
-4.291924	PRETENDED	-0.30103
-3.592954	YOUNGER	-0.4259687
-2.575921	BROTHER	-0.5411036
-3.990894	GETS	-0.30103
-3.01317	INTO	-0.4929155
-3.990894	DREADFUL	-0.30103
-3.990894	SCRAPES	-0.4771213
-3.990894	PURE	-0.4771213
-3.592954	SIMPLE	-0.3521825
-3.814802	TEDIOUS	-0.30103
-4.291924	LITERATURE	-0.30103
-4.291924	COMPLETE	-0.30103
-4.291924	IMPOSSIBILITY	-0.30103
-3.592954	WOULDN	-0.7781513
-4.291924	LITERARY	-0.30103
-4.291924	CRITICISM	-0.30103
-3.513773	LEAVE	-0.30103
-3.291924	HAVEN	-1.041393
-3.990894	UNIVERSITY	-0.30103
-3.990894	DAILY	-0.30103
-3.990894	PAPERS	-0.30103
-3.814802	ADVANCED	-0.30103
-4.291924	BUNBURYISTS	-0.30103
-4.291924	USEFUL	-0.30103
-3.212743	CALLED	-0.4336556
-3.814802	INVALUABLE	-0.39794
-3.814802	PERMANENT	-0.30103
-3.513773	INVALID	-0.39794
-2.723722	BUNBURY	-0.3748162
-3.115833	DOWN	-0.3521825
-3.592954	WHENEVER	-0.4259687
-3.814802	CHOOSE	-0.30103
-3.990894	WASN	-0.4771213
-3.689864	INSTANCE	-0.30103
-3.388834	DINE	-0.5642714
-3.814802	WILLIS	-0.60206
-2.990894	ENGAGED	-0.7781513
-3.212743	WEEK	-0.3424227
-3.814802	ASKED	-0.30103
-4.291924	ABSURDLY	-0.30103
-4.291924	CARELESS	-0.30103
-3.990894	SENDING	-0.30103
-3.990894	INVITATIONS	-0.4771213
-3.814802	FOOLISH	-0.39794
-4.291924	ANNOYS	-0.30103
-4.291924	RECEIVING	-0.30103
-3.689864	SMALLEST	-0.3679768
-3.990894	INTENTION	-0.4771213
-3.814802	DOING	-0.39794
-4.291924	BEGIN	-0.30103
-3.513773	MONDAY	-0.39794
-3.592954	RELATIONS	-0.3521825
-4.291924	TREATED	-0.30103
-4.291924	MEMBER	-0.30103
-3.990894	SENT	-0.30103
-3.337681	WOMAN	-0.3273589
-4.291924	THIRD	-0.30103
-3.592954	WHOM	-0.3521825
-3.212743	NEXT	-0.4336556
-3.990894	MARY	-0.4771213
-3.990894	FARQUHAR	-0.30103
-3.592954	HUSBAND	-0.30103
-3.814802	ACROSS	-0.30103
-3.446826	DINNER	-0.4393327
-3.592954	TABLE	-0.3521825
-2.969705	INDEED	-0.4393327
-3.01317	EVEN	-0.3399481
-4.291924	DECENT	-0.30103
-4.291924	ENORMOUSLY	-0.30103
-4.291924	INCREASE	-0.30103
-4.291924	AMOUNT	-0.30103
-3.337681	WOMEN	-0.3273589
-3.177981	LONDON	-0.4559319
-3.291924	THEIR	-0.3245111
-4.291924	HUSBANDS	-0.30103
-4.291924	SCANDALOUS	-0.30103
-3.388834	LOOKS	-0.3679768
-4.291924	WASHING	-0.30103
-4.291924	CLEAN	-0.30103
-4.291924	LINEN	-0.30103
-3.689864	PUBLIC	-0.30103
-3.513773	NATURALLY	-0.30103
-3.513773	BUNBURYING	-0.39794
-4.291924	RULES	-0.30103
-4.291924	ACCEPTS	-0.30103
-3.990894	KILL	-0.30103
-2.786774	HIM	-0.4436975
-3.990894	BORE	-0.30103
-3.689864	RID	-0.69897
-3.990894	STRONGLY	-0.4771213
-3.689864	ADVISE	-0.4771213
-3.337681	SAME	-0.359022
-3.388834	FRIEND	-0.4149734
-3.990894	INDUCE	-0.4771213
-3.061475	WHICH	-0.4313638
-2.844766	SEEMS	-0.69897
-3.250531	EXTREMELY	-0.30103
-4.291924	PROBLEMATIC	-0.30103
-3.291924	GLAD	-0.544068
-2.829526	MAN	-0.4168254
-4.291924	MARRIES	-0.30103
-3.291924	WITHOUT	-0.3521825
-3.814802	KNOWING	-0.30103
-3.036651	GIRL	-0.39794
-3.689864	WIFE	-0.30103
-3.990894	REALISE	-0.30103
-3.087804	THREE	-0.3899711
-4.291924	COMPANY	-0.30103
-3.814802	NONE	-0.39794
-3.990894	THEORY	-0.30103
-4.291924	CORRUPT	-0.30103
-3.689864	FRENCH	-0.30103
-4.291924	DRAMA	-0.30103
-4.291924	PROPOUNDING	-0.30103
-3.990894	FIFTY	-0.4771213
-3.145796	YEARS	-0.4771213
-3.689864	HAPPY	-0.3679768
-3.990894	ENGLISH	-0.30103
-3.814802	HOME	-0.30103
-4.291924	PROVED	-0.30103
-3.990894	CYNICAL	-0.4771213
-3.990894	EASY	-0.4771213
-3.592954	NOWADAYS	-0.4259688
-3.990894	LOT	-0.4771213
-4.291924	BEASTLY	-0.30103
-4.291924	COMPETITION	-0.30103
-3.388834	AH	-0.4149734
-4.291924	RELATIVES	-0.30103
-4.291924	CREDITORS	-0.30103
-3.814802	RING	-0.39794
-4.291924	WAGNERIAN	-0.30103
-3.689864	MANNER	-0.69897
-3.814802	TEN	-0.39794
-3.592954	MINUTES	-0.3521826
-3.513773	OPPORTUNITY	-0.4771213
-2.990894	SUPPOSE	-0.4771213
-3.513773	HATE	-0.30103
-3.990894	MEALS	-0.4771213
-3.990894	SHALLOW	-0.30103
-3.036651	FAIRFAX	-0.5118834
-3.115833	AFTERNOON	-0.544068
-3.061475	HOPE	-0.4607308
-4.291924	BEHAVING	-0.30103
-4.291924	FEELING	-0.30103
-3.115833	THINGS	-0.3735807
-3.689864	TOGETHER	-0.4771213
-3.990894	SMART	-0.4771213
-3.814802	RE	-0.30103
-3.446826	PERFECT	-0.30103
-4.291924	DEVELOPMENTS	-0.30103
-3.592954	INTEND	-0.7781513
-4.291924	DEVELOP	-0.30103
-3.250531	MANY	-0.30103
-4.291924	DIRECTIONS	-0.30103
-2.629166	WE	-0.4533183
-3.814802	LATE	-0.39794
-3.814802	OBLIGED	-0.39794
-3.990894	HARBURY	-0.30103
-3.990894	HADN	-0.4771213
-3.087804	POOR	-0.3484547
-3.513773	DEATH	-0.3424227
-3.990894	ALTERED	-0.30103
-3.592954	TWENTY	-0.30103
-4.291924	CUP	-0.30103
-3.990894	THOSE	-0.30103
-3.990894	PROMISED	-0.30103
-3.592954	SIT	-0.3521825
-3.990894	THANKS	-0.30103
-3.388834	MAMMA	-0.3679768
-4.291924	COMFORTABLE	-0.30103
-3.990894	CUCUMBERS	-0.30103
-4.291924	MARKET	-0.30103
-3.990894	WENT	-0.30103
-4.291924	TWICE	-0.30103
-3.513773	READY	-0.4771213
-3.689864	MONEY	-0.4771213
-4.291924	GREATLY	-0.30103
-4.291924	DISTRESSED	-0.30103
-4.291924	CRUMPETS	-0.30103
-3.990894	LIVING	-0.30103
-3.446826	ENTIRELY	-0.3357921
-3.689864	HAIR	-0.30103
-3.990894	TURNED	-0.30103
-4.291924	GOLD	-0.30103
-3.990894	GRIEF	-0.4771213
-3.990894	CHANGED	-0.30103
-3.592954	ITS	-0.3521825
-3.990894	COLOUR	-0.30103
-3.990894	CAUSE	-0.30103
-3.250531	CANNOT	-0.30103
-3.250531	VE	-0.3222193
-3.990894	TREAT	-0.30103
-3.990894	SEND	-0.30103
-4.291924	ATTENTIVE	-0.30103
-4.291924	WATCH	-0.30103
-3.212743	SHALL	-0.3424227
-3.291924	PUT	-0.3853509
-3.990894	COMPLETELY	-0.30103
-4.291924	UPSTAIRS	-0.30103
-3.990894	FORTUNATELY	-0.30103
-4.291924	ACCUSTOMED	-0.30103
-3.446826	TERRIBLE	-0.3357921
-3.689864	DISAPPOINTMENT	-0.3679768
-3.990894	TELEGRAM	-0.30103
-3.990894	ILL	-0.30103
-3.689864	AGAIN	-0.3679768
-3.513773	STRANGE	-0.3424227
-4.291924	SUFFER	-0.30103
-3.291924	MIND	-0.4259687
-3.337681	LIVE	-0.3273589
-3.513773	DIE	-0.60206
-4.291924	SHILLY	-0.30103
-4.291924	SHALLYING	-0.30103
-3.814802	NOR	-0.30103
-4.291924	SYMPATHY	-0.30103
-4.291924	INVALIDS	-0.30103
-3.814802	CONSIDER	-0.60206
-4.291924	MORBID	-0.30103
-4.291924	ILLNESS	-0.30103
-4.291924	ENCOURAGED	-0.30103
-3.689864	OTHERS	-0.4771213
-4.291924	PRIMARY	-0.30103
-3.990894	TELLING	-0.30103
-3.689864	NOTICE	-0.3679768
-4.291924	IMPROVEMENT	-0.30103
-4.291924	AILMENT	-0.30103
-3.689864	GOES	-0.30103
-4.291924	RELAPSE	-0.30103
-3.814802	SATURDAY	-0.30103
-4.291924	RELY	-0.30103
-3.990894	ARRANGE	-0.30103
-3.513773	MUSIC	-0.3424227
-4.291924	RECEPTION	-0.30103
-3.689864	WANTS	-0.4771213
-3.145796	SOMETHING	-0.4074853
-4.291924	ENCOURAGE	-0.30103
-3.814802	CONVERSATION	-0.30103
-3.592954	PARTICULARLY	-0.3521826
-3.513773	END	-0.39794
-3.990894	SEASON	-0.30103
-4.291924	PRACTICALLY	-0.30103
-3.814802	WHATEVER	-0.30103
-4.291924	CASES	-0.30103
-3.446826	PROBABLY	-0.3357921
-3.388834	STILL	-0.30103
-4.291924	CONSCIOUS	-0.30103
-3.990894	PROMISE	-0.30103
-4.291924	DIFFICULTY	-0.30103
-3.990894	PLAYS	-0.30103
-3.990894	RUN	-0.30103
-3.990894	PROGRAMME	-0.30103
-3.689864	DRAWN	-0.4771213
-3.513773	KINDLY	-0.3424226
-2.969705	MOMENT	-0.4393327
-4.291924	THOUGHTFUL	-0.30103
-3.446826	FEW	-0.30103
-4.291924	EXPURGATIONS	-0.30103
-4.291924	SONGS	-0.30103
-4.291924	IMPROPER	-0.30103
-4.291924	SHOCKED	-0.30103
-3.990894	LAUGH	-0.30103
-3.990894	WORSE	-0.4771213
-3.250531	GERMAN	-0.3756636
-3.814802	SOUNDS	-0.30103
-3.689864	THOROUGHLY	-0.4771213
-4.291924	RESPECTABLE	-0.30103
-3.990894	LANGUAGE	-0.30103
-4.291924	ACCOMPANY	-0.30103
-3.212743	DAY	-0.3424227
-3.592954	WEATHER	-0.30103
-3.291924	FEEL	-0.3245111
-3.990894	CERTAIN	-0.30103
-4.291924	NERVOUS	-0.30103
-3.814802	WRONG	-0.60206
-4.291924	ADVANTAGE	-0.30103
-3.990894	TEMPORARY	-0.4771213
-3.689864	ABSENCE	-0.3679768
-3.513773	SUDDENLY	-0.30103
-3.291924	MET	-0.4771213
-4.291924	ADMIRED	-0.30103
-4.291924	DEMONSTRATIVE	-0.30103
-3.990894	IRRESISTIBLE	-0.4771213
-3.990894	FASCINATION	-0.4771213
-3.990894	INDIFFERENT	-0.4771213
-3.115833	AGE	-0.4973247
-4.291924	IDEALS	-0.30103
-4.291924	CONSTANTLY	-0.30103
-3.388834	MENTIONED	-0.3679768
-4.291924	EXPENSIVE	-0.30103
-4.291924	MONTHLY	-0.30103
-4.291924	MAGAZINES	-0.30103
-3.990894	REACHED	-0.30103
-4.291924	PROVINCIAL	-0.30103
-4.291924	PULPITS	-0.30103
-4.291924	IDEAL	-0.30103
-3.814802	INSPIRES	-0.30103
-3.513773	ABSOLUTE	-0.39794
-3.592954	CONFIDENCE	-0.3521825
-3.446826	KNEW	-0.4393327
-4.291924	DESTINED	-0.30103
-3.291924	COULDN	-1.041393
-4.291924	SUPPOSING	-0.30103
-3.814802	CLEARLY	-0.30103
-3.990894	METAPHYSICAL	-0.30103
-4.291924	SPECULATION	-0.30103
-3.990894	SPECULATIONS	-0.30103
-4.291924	REFERENCE	-0.30103
-4.291924	ACTUAL	-0.30103
-3.990894	FACTS	-0.4771213
-3.990894	PERSONALLY	-0.30103
-3.337681	DARLING	-0.39794
-3.337681	CARE	-0.39794
-3.814802	SUITS	-0.30103
-4.291924	DIVINE	-0.30103
-3.990894	VIBRATIONS	-0.30103
-3.990894	LOTS	-0.4771213
-4.291924	NICER	-0.30103
-3.592954	NAMES	-0.3521825
-4.291924	THRILL	-0.30103
-3.592954	KNOWN	-0.3521825
-4.291924	SEVERAL	-0.30103
-4.291924	JACKS	-0.30103
-4.291924	EXCEPTION	-0.30103
-3.592954	PLAIN	-0.3521825
-4.291924	NOTORIOUS	-0.30103
-4.291924	DOMESTICITY	-0.30103
-3.337681	JOHN	-0.447158
-3.990894	PITY	-0.4771213
-4.291924	ENTRANCING	-0.30103
-3.689864	SINGLE	-0.30103
-4.291924	SOLITUDE	-0.30103
-4.291924	SAFE	-0.30103
-3.061475	CHRISTENED	-0.3832168
-3.513773	LOST	-0.30103
-3.990894	LED	-0.30103
-3.990894	ADORE	-0.30103
-3.814802	PROPOSED	-0.60206
-3.592954	YET	-0.4259688
-4.291924	TOUCHED	-0.30103
-4.291924	SPARE	-0.30103
-3.446826	POSSIBLE	-0.3357921
-3.990894	FAIR	-0.4771213
-3.592954	FRANKLY	-0.30103
-2.969705	HAND	-0.79588
-3.990894	FULLY	-0.30103
-3.990894	DETERMINED	-0.4771213
-4.291924	ACCEPT	-0.30103
-3.212743	LONG	-0.30103
-4.291924	LOVED	-0.30103
-3.388834	WORLD	-0.3309932
-3.592954	PRACTICE	-0.5440681
-4.291924	GERALD	-0.30103
-3.689864	FRIENDS	-0.3679768
-3.814802	WONDERFULLY	-0.30103
-3.990894	BLUE	-0.30103
-4.291924	EYES	-0.30103
-3.592954	ESPECIALLY	-0.30103
-3.990894	RISE	-0.30103
-4.291924	SEMI	-0.30103
-4.291924	RECUMBENT	-0.30103
-4.291924	POSTURE	-0.30103
-4.291924	INDECOROUS	-0.30103
-3.337681	BEG	-0.60206
-3.990894	RETIRE	-0.30103
-3.814802	FINISHED	-0.30103
-3.446826	PARDON	-0.3802112
-3.592954	BECOME	-0.3521825
-3.446826	FATHER	-0.4393327
-4.291924	PERMIT	-0.30103
-3.291924	ENGAGEMENT	-0.3245111
-3.814802	SURPRISE	-0.30103
-3.689864	UNPLEASANT	-0.30103
-3.990894	QUESTIONS	-0.30103
-4.291924	WHILE	-0.30103
-3.814802	MAKING	-0.30103
-4.291924	INQUIRIES	-0.30103
-3.388834	WAIT	-0.4149734
-4.291924	BELOW	-0.30103
-3.689864	CARRIAGE	-0.3679768
-4.291924	SEAT	-0.30103
-4.291924	PREFER	-0.30103
-3.990894	STANDING	-0.30103
-3.689864	BOUND	-0.69897
-3.990894	LIST	-0.30103
-3.990894	ELIGIBLE	-0.4771213
-3.990894	ALTHOUGH	-0.30103
-4.291924	DUCHESS	-0.30103
-4.291924	BOLTON	-0.30103
-3.446826	WORK	-0.30103
-3.814802	ENTER	-0.30103
-4.291924	ANSWERS	-0.30103
-4.291924	AFFECTIONATE	-0.30103
-3.446826	MOTHER	-0.30103
-3.990894	REQUIRES	-0.30103
-3.990894	SMOKE	-0.4771213
-3.990894	OCCUPATION	-0.30103
-3.990894	IDLE	-0.30103
-3.990894	OPINION	-0.30103
-4.291924	DESIRES	-0.30103
-3.513773	EVERYTHING	-0.3424227
-3.689864	PLEASED	-0.69897
-4.291924	TAMPERS	-0.30103
-3.814802	IGNORANCE	-0.30103
-4.291924	DELICATE	-0.30103
-4.291924	EXOTIC	-0.30103
-4.291924	FRUIT	-0.30103
-4.291924	BLOOM	-0.30103
-3.814802	GONE	-0.30103
-3.689864	EDUCATION	-0.30103
-4.291924	RADICALLY	-0.30103
-4.291924	UNSOUND	-0.30103
-4.291924	ENGLAND	-0.30103
-3.814802	EFFECT	-0.30103
-3.990894	PROVE	-0.30103
-4.291924	DANGER	-0.30103
-3.814802	UPPER	-0.30103
-3.990894	CLASSES	-0.30103
-3.814802	LEAD	-0.30103
-4.291924	ACTS	-0.30103
-4.291924	VIOLENCE	-0.30103
-3.990894	GROSVENOR	-0.30103
-3.689864	SQUARE	-0.3679768
-3.814802	INCOME	-0.39794
-3.814802	SEVEN	-0.39794
-3.814802	THOUSAND	-0.39794
-3.689864	YEAR	-0.30103
-3.689864	LAND	-0.30103
-3.990894	INVESTMENTS	-0.30103
-4.291924	CHIEFLY	-0.30103
-3.814802	SATISFACTORY	-0.30103
-3.689864	DUTIES	-0.30103
-3.513773	EXPECTED	-0.3424227
-3.814802	DURING	-0.39794
-4.291924	LIFETIME	-0.30103
-4.291924	EXACTED	-0.30103
-4.291924	CEASED	-0.30103
-3.990894	PROFIT	-0.30103
-4.291924	GIVES	-0.30103
-4.291924	PREVENTS	-0.30103
-4.291924	KEEPING	-0.30103
-3.115833	HOUSE	-0.39794
-4.291924	ATTACHED	-0.30103
-3.990894	FIFTEEN	-0.30103
-4.291924	ACRES	-0.30103
-3.990894	DEPEND	-0.30103
-4.291924	POACHERS	-0.30103
-4.291924	BEDROOMS	-0.30103
-3.592954	POINT	-0.3521825
-3.990894	CLEARED	-0.4771213
-4.291924	AFTERWARDS	-0.30103
-4.291924	UNSPOILED	-0.30103
-3.337681	NATURE	-0.39794
-4.291924	RESIDE	-0.30103
-3.814802	BELGRAVE	-0.60206
-4.291924	BLOXHAM	-0.30103
-3.689864	SIX	-0.3679768
-3.513773	MONTHS	-0.3424227
-3.990894	CONSIDERABLY	-0.30103
-4.291924	GUARANTEE	-0.30103
-3.990894	RESPECTABILITY	-0.30103
-3.388834	CHARACTER	-0.3309932
-4.291924	UNFASHIONABLE	-0.30103
-3.592954	SIDE	-0.5440681
-4.291924	EASILY	-0.30103
-4.291924	FASHION	-0.30103
-3.291924	BOTH	-0.30103
-3.814802	NECESSARY	-0.30103
-3.990894	PRESUME	-0.30103
-4.291924	POLITICS	-0.30103
-4.291924	LIBERAL	-0.30103
-4.291924	UNIONIST	-0.30103
-4.291924	COUNT	-0.30103
-4.291924	TORIES	-0.30103
-3.814802	EVENING	-0.39794
-4.291924	MINOR	-0.30103
-3.814802	MATTERS	-0.39794
-3.513773	PARENTS	-0.39794
-3.814802	LOSE	-0.30103
-3.990894	PARENT	-0.30103
-3.990894	REGARDED	-0.4771213
-4.291924	MISFORTUNE	-0.30103
-4.291924	CARELESSNESS	-0.30103
-4.291924	EVIDENTLY	-0.30103
-4.291924	WEALTH	-0.30103
-3.990894	BORN	-0.30103
-4.291924	RADICAL	-0.30103
-4.291924	PURPLE	-0.30103
-4.291924	COMMERCE	-0.30103
-4.291924	RANKS	-0.30103
-3.990894	ARISTOCRACY	-0.30103
-4.291924	NEARER	-0.30103
-3.689864	ACTUALLY	-0.30103
-3.814802	BIRTH	-0.30103
-3.513773	GENTLEMAN	-0.3424227
-3.990894	CHARITABLE	-0.30103
-3.990894	DISPOSITION	-0.30103
-4.291924	GAVE	-0.30103
-3.689864	BECAUSE	-0.3679768
-3.814802	HAPPENED	-0.30103
-3.990894	TICKET	-0.4771213
-4.291924	POCKET	-0.30103
-4.291924	SUSSEX	-0.30103
-3.990894	SEASIDE	-0.4771213
-3.990894	RESORT	-0.30103
-3.087804	BAG	-0.3899711
-4.291924	BLACK	-0.30103
-4.291924	LEATHER	-0.30103
-3.990894	HANDLES	-0.30103
-3.990894	LOCALITY	-0.30103
-4.291924	JAMES	-0.30103
-3.592954	CLOAK	-0.7781513
-3.990894	VICTORIA	-0.4771213
-3.592954	STATION	-0.5440681
-3.990894	MISTAKE	-0.30103
-3.990894	BRIGHTON	-0.4771213
-3.814802	LINE	-0.39794
-4.291924	IMMATERIAL	-0.30103
-4.291924	CONFESS	-0.30103
-4.291924	BEWILDERED	-0.30103
-4.291924	BRED	-0.30103
-4.291924	DISPLAY	-0.30103
-4.291924	CONTEMPT	-0.30103
-4.291924	DECENCIES	-0.30103
-3.990894	REMINDS	-0.30103
-3.990894	WORST	-0.30103
-3.990894	EXCESSES	-0.30103
-4.291924	REVOLUTION	-0.30103
-3.388834	UNFORTUNATE	-0.4771213
-4.291924	MOVEMENT	-0.30103
-3.446826	PARTICULAR	-0.3357921
-3.689864	RAILWAY	-0.4771213
-3.061475	MIGHT	-0.3832168
-4.291924	SERVE	-0.30103
-4.291924	CONCEAL	-0.30103
-3.513773	SOCIAL	-0.39794
-4.291924	INDISCRETION	-0.30103
-3.990894	USED	-0.30103
-4.291924	PURPOSE	-0.30103
-4.291924	ASSURED	-0.30103
-4.291924	BASIS	-0.30103
-4.291924	RECOGNISED	-0.30103
-4.291924	ENSURE	-0.30103
-4.291924	ACQUIRE	-0.30103
-4.291924	EFFORT	-0.30103
-3.990894	SEX	-0.30103
-4.291924	MANAGE	-0.30103
-3.990894	DRESSING	-0.30103
-4.291924	SATISFY	-0.30103
-3.990894	IMAGINE	-0.30103
-3.990894	DREAM	-0.4771213
-3.990894	ALLOWING	-0.30103
-3.177981	OUR	-0.3187588
-3.814802	BROUGHT	-0.30103
-4.291924	UTMOST	-0.30103
-3.689864	FORM	-0.3679768
-3.990894	ALLIANCE	-0.4771213
-4.291924	PARCEL	-0.30103
-3.814802	GHASTLY	-0.30103
-4.291924	TUNE	-0.30103
-4.291924	IDIOTIC	-0.30103
-3.212743	OFF	-0.3424227
-4.291924	REFUSED	-0.30103
-4.291924	REFUSING	-0.30103
-4.291924	NATURED	-0.30103
-4.291924	TRIVET	-0.30103
-3.990894	UNBEARABLE	-0.4771213
-3.990894	GORGON	-0.30103
-4.291924	MONSTER	-0.30103
-4.291924	MYTH	-0.30103
-3.990894	UNFAIR	-0.30103
-4.291924	HEARING	-0.30103
-4.291924	ABUSED	-0.30103
-4.291924	PACK	-0.30103
-3.990894	REMOTEST	-0.30103
-3.990894	KNOWLEDGE	-0.30103
-4.291924	INSTINCT	-0.30103
-3.990894	ARGUE	-0.4771213
-4.291924	ORIGINALLY	-0.30103
-3.388834	UPON	-0.3309932
-3.814802	WORD	-0.30103
-3.689864	D	-0.3679768
-4.291924	SHOOT	-0.30103
-3.990894	CHANCE	-0.4771213
-3.814802	BECOMING	-0.30103
-4.291924	MOTHERS	-0.30103
-4.291924	TRAGEDY	-0.30103
-3.513773	CLEVER	-0.3424227
-4.291924	PHRASED	-0.30103
-3.990894	TRUE	-0.30103
-4.291924	OBSERVATION	-0.30103
-4.291924	CIVILISED	-0.30103
-4.291924	SICK	-0.30103
-4.291924	CLEVERNESS	-0.30103
-4.291924	EVERYBODY	-0.30103
-3.990894	MEETING	-0.30103
-4.291924	NUISANCE	-0.30103
-4.291924	FOOLS	-0.30103
-4.291924	MEET	-0.30103
-3.990894	TELLS	-0.30103
-3.388834	SWEET	-0.3309932
-4.291924	REFINED	-0.30103
-3.990894	IDEAS	-0.4771213
-3.446826	PRETTY	-0.3802112
-4.291924	PROFLIGATE	-0.30103
-3.592954	DIED	-0.30103
-3.592954	PARIS	-0.3521825
-3.990894	APOPLEXY	-0.30103
-3.814802	HEREDITARY	-0.30103
-4.291924	RUNS	-0.30103
-3.814802	FAMILIES	-0.30103
-3.513773	SEVERE	-0.8450981
-3.513773	CHILL	-0.39794
-3.990894	CARRIED	-0.4771213
-3.990894	LOSS	-0.30103
-4.291924	DEAL	-0.30103
-3.814802	SILLY	-0.30103
-4.291924	CAPITAL	-0.30103
-3.990894	APPETITE	-0.30103
-3.990894	WALKS	-0.30103
-4.291924	PAYS	-0.30103
-3.990894	ATTENTION	-0.30103
-4.291924	LESSONS	-0.30103
-3.689864	EIGHTEEN	-0.4771212
-3.388834	WARD	-0.5642714
-3.814802	DOESN	-0.60206
-4.291924	BLURT	-0.30103
-4.291924	BET	-0.30103
-3.337681	HOUR	-0.447158
-4.291924	CALLING	-0.30103
-3.689864	EACH	-0.69897
-3.814802	SISTER	-0.30103
-3.689864	DRESS	-0.30103
-3.990894	HUNGRY	-0.4771213
-4.291924	WEREN	-0.30103
-4.291924	THEATRE	-0.30103
-4.291924	LOATHE	-0.30103
-4.291924	LISTENING	-0.30103
-4.291924	CLUB	-0.30103
-3.814802	TALKING	-0.30103
-3.990894	TROT	-0.4771213
-3.446826	ROUND	-0.30103
-4.291924	EMPIRE	-0.30103
-4.291924	BEAR	-0.30103
-4.291924	AWFULLY	-0.30103
-3.990894	OBJECT	-0.30103
-3.814802	TURN	-0.39794
-4.291924	STRICTLY	-0.30103
-4.291924	IMMORAL	-0.30103
-4.291924	ATTITUDE	-0.30103
-3.990894	TOWARDS	-0.30103
-3.990894	FACE	-0.30103
-3.689864	FEAR	-0.3679768
-4.291924	PAY	-0.30103
-4.291924	REGARD	-0.30103
-3.990894	CHILDREN	-0.30103
-3.990894	FASHIONED	-0.30103
-4.291924	DYING	-0.30103
-3.592954	INFLUENCE	-0.3521825
-4.291924	PREVENT	-0.30103
-3.990894	ALTER	-0.30103
-4.291924	ETERNAL	-0.30103
-4.291924	DEVOTION	-0.30103
-4.291924	STORY	-0.30103
-3.990894	ORIGIN	-0.30103
-4.291924	RELATED	-0.30103
-4.291924	UNPLEASING	-0.30103
-4.291924	COMMENTS	-0.30103
-4.291924	STIRRED	-0.30103
-4.291924	DEEPER	-0.30103
-4.291924	FIBRES	-0.30103
-3.388834	CHRISTIAN	-0.6989701
-4.291924	SIMPLICITY	-0.30103
-4.291924	EXQUISITELY	-0.30103
-4.291924	INCOMPREHENSIBLE	-0.30103
-3.814802	ADDRESS	-0.30103
-3.814802	MANOR	-0.60206
-4.291924	WOOLTON	-0.30103
-3.990894	HERTFORDSHIRE	-0.30103
-4.291924	POSTAL	-0.30103
-4.291924	SERVICE	-0.30103
-4.291924	DESPERATE	-0.30103
-3.814802	REQUIRE	-0.30103
-3.990894	CONSIDERATION	-0.30103
-4.291924	COMMUNICATE	-0.30103
-4.291924	REMAIN	-0.30103
-3.592954	ALSO	-0.30103
-4.291924	BELL	-0.30103
-4.291924	GLASS	-0.30103
-4.291924	SHERRY	-0.30103
-3.990894	MORROW	-0.30103
-3.291924	TILL	-0.4259688
-3.689864	CLOTHES	-0.3679768
-4.291924	JACKET	-0.30103
-4.291924	FINE	-0.30103
-4.291924	PESSIMIST	-0.30103
-3.689864	BEST	-0.30103
-3.990894	SATISFACTION	-0.30103
-3.814802	SENSIBLE	-0.39794
-3.814802	INTELLECTUAL	-0.30103
-4.291924	CARED	-0.30103
-4.291924	AMUSED	-0.30103
-3.592954	ANXIOUS	-0.3521825
-4.291924	SCRAPE	-0.30103
-3.990894	NOBODY	-0.30103
-3.446826	GARDEN	-0.3802113
-3.990894	FLIGHT	-0.30103
-4.291924	GREY	-0.30103
-3.990894	STONE	-0.30103
-4.291924	STEPS	-0.30103
-3.990894	LEADS	-0.30103
-3.990894	FULL	-0.4771213
-3.990894	ROSES	-0.4771213
-4.291924	JULY	-0.30103
-3.990894	BASKET	-0.30103
-4.291924	CHAIRS	-0.30103
-4.291924	COVERED	-0.30103
-4.291924	BOOKS	-0.30103
-4.291924	YEW	-0.30103
-3.990894	TREE	-0.30103
-4.291924	UTILITARIAN	-0.30103
-4.291924	WATERING	-0.30103
-3.814802	FLOWERS	-0.30103
-4.291924	MOULTON	-0.30103
-3.814802	PLEASURES	-0.30103
-4.291924	AWAIT	-0.30103
-4.291924	GRAMMAR	-0.30103
-3.990894	OPEN	-0.30103
-4.291924	PAGE	-0.30103
-4.291924	REPEAT	-0.30103
-3.592954	YESTERDAY	-0.3521825
-3.689864	LESSON	-0.3679768
-3.250531	CHILD	-0.3756636
-3.990894	IMPROVE	-0.30103
-3.814802	YOURSELF	-0.30103
-3.990894	LAID	-0.30103
-3.990894	STRESS	-0.4771213
-3.990894	LEAVING	-0.4771213
-4.291924	LAYS	-0.30103
-3.814802	SOMETIMES	-0.30103
-4.291924	ENJOYS	-0.30103
-4.291924	GRAVITY	-0.30103
-4.291924	DEMEANOUR	-0.30103
-4.291924	COMMENDED	-0.30103
-3.990894	COMPARATIVELY	-0.30103
-3.990894	HIGHER	-0.30103
-4.291924	BORED	-0.30103
-4.291924	SURPRISED	-0.30103
-4.291924	TROUBLES	-0.30103
-4.291924	MERRIMENT	-0.30103
-3.990894	TRIVIALITY	-0.30103
-3.592954	REMEMBER	-0.30103
-3.814802	CONSTANT	-0.30103
-4.291924	ANXIETY	-0.30103
-4.291924	GEOLOGY	-0.30103
-3.990894	ACCORDING	-0.4771213
-3.990894	ADMISSION	-0.30103
-4.291924	IRRETRIEVABLY	-0.30103
-3.990894	WEAK	-0.30103
-4.291924	VACILLATING	-0.30103
-3.592954	DESIRE	-0.3521825
-4.291924	RECLAIM	-0.30103
-3.814802	FAVOUR	-0.60206
-4.291924	MANIA	-0.30103
-4.291924	TURNING	-0.30103
-3.990894	SOWS	-0.4771213
-3.990894	REAP	-0.4771213
-3.814802	AWAY	-0.30103
-3.388834	DIARY	-0.4149733
-4.291924	SECRETS	-0.30103
-3.990894	WRITE	-0.30103
-3.814802	MEMORY	-0.30103
-4.291924	CARRY	-0.30103
-4.291924	CHRONICLES	-0.30103
-4.291924	RESPONSIBLE	-0.30103
-3.689864	VOLUME	-0.3679768
-3.990894	NOVELS	-0.4771213
-4.291924	MUDIE	-0.30103
-4.291924	SENDS	-0.30103
-4.291924	SLIGHTINGLY	-0.30103
-3.814802	NOVEL	-0.30103
-3.814802	WROTE	-0.30103
-4.291924	EARLIER	-0.30103
-3.689864	DAYS	-0.4771213
-3.814802	HAPPILY	-0.39794
-4.291924	DEPRESS	-0.30103
-4.291924	ENDED	-0.30103
-4.291924	UNHAPPILY	-0.30103
-3.990894	FICTION	-0.30103
-3.592954	MEANS	-0.4259687
-4.291924	PUBLISHED	-0.30103
-3.689864	MANUSCRIPT	-0.3679768
-4.291924	UNFORTUNATELY	-0.30103
-4.291924	ABANDONED	-0.30103
-4.291924	MISLAID	-0.30103
-4.291924	PROFITLESS	-0.30103
-3.250531	DR	-0.8129134
-3.250531	CHASUBLE	-0.4522977
-3.689864	THROUGH	-0.4771213
-3.814802	TRUST	-0.30103
-4.291924	COMPLAINING	-0.30103
-3.689864	HEADACHE	-0.4771213
-3.592954	SHORT	-0.3521825
-3.990894	STROLL	-0.4771213
-3.990894	PARK	-0.30103
-3.592954	FELT	-0.30103
-3.990894	INSTINCTIVELY	-0.30103
-4.291924	THINKING	-0.30103
-3.814802	RECTOR	-0.30103
-3.990894	CAME	-0.30103
-4.291924	INATTENTIVE	-0.30103
-4.291924	FORTUNATE	-0.30103
-3.990894	PUPIL	-0.30103
-4.291924	HANG	-0.30103
-4.291924	LIPS	-0.30103
-3.990894	SPOKE	-0.30103
-4.291924	METAPHORICALLY	-0.30103
-3.990894	METAPHOR	-0.4771213
-4.291924	BEES	-0.30103
-3.814802	RETURNED	-0.30103
-4.291924	EXPECT	-0.30103
-4.291924	LIKES	-0.30103
-4.291924	SPEND	-0.30103
-3.990894	SUNDAY	-0.30103
-4.291924	SOLE	-0.30103
-4.291924	AIM	-0.30103
-4.291924	ENJOYMENT	-0.30103
-4.291924	DISTURB	-0.30103
-4.291924	EGERIA	-0.30103
-3.990894	LONGER	-0.30103
-4.291924	LAETITIA	-0.30103
-3.689864	DOCTOR	-0.3679768
-4.291924	CLASSICAL	-0.30103
-3.990894	ALLUSION	-0.30103
-4.291924	PAGAN	-0.30103
-4.291924	AUTHORS	-0.30103
-4.291924	EVENSONG	-0.30103
-4.291924	WALK	-0.30103
-3.990894	SCHOOLS	-0.30103
-3.990894	POLITICAL	-0.4771213
-3.990894	ECONOMY	-0.30103
-4.291924	CHAPTER	-0.30103
-4.291924	FALL	-0.30103
-4.291924	RUPEE	-0.30103
-4.291924	OMIT	-0.30103
-3.990894	SENSATIONAL	-0.30103
-4.291924	METALLIC	-0.30103
-4.291924	PROBLEMS	-0.30103
-4.291924	MELODRAMATIC	-0.30103
-3.689864	HORRID	-0.30103
-4.291924	DRIVEN	-0.30103
-3.814802	LUGGAGE	-0.30103
-3.990894	W	-0.30103
-4.291924	SEEMED	-0.30103
-4.291924	DISAPPOINTED	-0.30103
-4.291924	PRIVATELY	-0.30103
-4.291924	HOUSEKEEPER	-0.30103
-3.446826	WICKED	-0.3357921
-4.291924	FRIGHTENED	-0.30103
-4.291924	CARD	-0.30103
-4.291924	MUSTN	-0.30103
-3.990894	DECEIVING	-0.30103
-3.990894	INEXCUSABLE	-0.30103
-3.814802	LEADING	-0.30103
-4.291924	DOUBLE	-0.30103
-3.990894	PRETENDING	-0.4771213
-4.291924	HYPOCRISY	-0.30103
-4.291924	PROUD	-0.30103
-3.689864	THOUGH	-0.4771213
-4.291924	PLEASANTER	-0.30103
-3.689864	TRAIN	-0.4771213
-3.990894	APPOINTMENT	-0.30103
-3.513773	IMPORTANT	-0.3424227
-4.291924	RETAIN	-0.30103
-3.814802	BEAUTY	-0.39794
-4.291924	ARRIVES	-0.30103
-4.291924	EMIGRATING	-0.30103
-3.814802	BUY	-0.30103
-3.990894	OUTFIT	-0.4771213
-3.990894	TASTE	-0.30103
-3.990894	NECKTIES	-0.30103
-3.814802	AUSTRALIA	-0.39794
-3.689864	SOONER	-0.30103
-4.291924	WEDNESDAY	-0.30103
-3.990894	RECEIVED	-0.30103
-4.291924	ENCOURAGING	-0.30103
-4.291924	REFORM	-0.30103
-4.291924	MISSION	-0.30103
-4.291924	REFORMING	-0.30103
-4.291924	QUIXOTIC	-0.30103
-4.291924	THOUGHTLESS	-0.30103
-4.291924	REMEMBERED	-0.30103
-4.291924	NEW	-0.30103
-4.291924	REGULAR	-0.30103
-4.291924	WHOLESOME	-0.30103
-3.990894	BUTTONHOLE	-0.4771213
-4.291924	UNLESS	-0.30103
-4.291924	MARECHAL	-0.30103
-4.291924	NIEL	-0.30103
-3.990894	PINK	-0.4771213
-3.990894	ROSE	-0.30103
-3.990894	SAYS	-0.30103
-3.990894	SIGHTED	-0.30103
-3.990894	PRETTIEST	-0.4771213
-3.990894	SNARE	-0.30103
-4.291924	CAUGHT	-0.30103
-3.990894	CATCH	-0.30103
-3.990894	ALONE	-0.30103
-4.291924	MISANTHROPE	-0.30103
-4.291924	WOMANTHROPE	-0.30103
-4.291924	DESERVE	-0.30103
-4.291924	NEOLOGISTIC	-0.30103
-4.291924	PHRASE	-0.30103
-4.291924	PRECEPT	-0.30103
-3.990894	PRIMITIVE	-0.4771213
-3.689864	CHURCH	-0.30103
-3.814802	DISTINCTLY	-0.30103
-3.990894	AGAINST	-0.30103
-4.291924	MATRIMONY	-0.30103
-3.990894	OBVIOUSLY	-0.4771213
-3.592954	REASON	-0.5440681
-4.291924	LASTED	-0.30103
-4.291924	PERSISTENTLY	-0.30103
-4.291924	REMAINING	-0.30103
-4.291924	CONVERTS	-0.30103
-3.990894	HIMSELF	-0.30103
-4.291924	TEMPTATION	-0.30103
-3.990894	CAREFUL	-0.30103
-3.990894	CELIBACY	-0.30103
-4.291924	WEAKER	-0.30103
-4.291924	VESSELS	-0.30103
-4.291924	ASTRAY	-0.30103
-4.291924	EQUALLY	-0.30103
-3.446826	ATTRACTIVE	-0.3357921
-3.592954	EXCEPT	-0.3521825
-4.291924	SYMPATHIES	-0.30103
-4.291924	MATURITY	-0.30103
-4.291924	DEPENDED	-0.30103
-4.291924	RIPENESS	-0.30103
-4.291924	TRUSTED	-0.30103
-4.291924	GREEN	-0.30103
-4.291924	HORTICULTURALLY	-0.30103
-4.291924	FRUITS	-0.30103
-3.814802	PERHAPS	-0.30103
-3.990894	FOLLOWED	-0.30103
-4.291924	GARB	-0.30103
-4.291924	WOE	-0.30103
-4.291924	BETOKEN	-0.30103
-4.291924	CALAMITY	-0.30103
-4.291924	SHAMEFUL	-0.30103
-3.990894	DEBTS	-0.30103
-3.990894	DEAD	-0.4771213
-4.291924	SINCERE	-0.30103
-4.291924	CONDOLENCE	-0.30103
-3.990894	LEAST	-0.30103
-4.291924	CONSOLATION	-0.30103
-3.990894	GENEROUS	-0.30103
-4.291924	FORGIVING	-0.30103
-3.990894	BROTHERS	-0.30103
-3.990894	FAULTS	-0.30103
-3.814802	SAD	-0.30103
-3.990894	BLOW	-0.4771213
-4.291924	ABROAD	-0.30103
-4.291924	MANAGER	-0.30103
-4.291924	HOTEL	-0.30103
-3.814802	CHARITY	-0.30103
-3.513773	PECULIARLY	-0.30103
-3.990894	SUSCEPTIBLE	-0.4771213
-4.291924	DRAUGHTS	-0.30103
-4.291924	INTERMENT	-0.30103
-3.990894	EXPRESSED	-0.4771213
-4.291924	BURIED	-0.30103
-3.814802	POINTS	-0.30103
-4.291924	TRAGIC	-0.30103
-3.814802	DOMESTIC	-0.30103
-4.291924	AFFLICTION	-0.30103
-3.990894	SERMON	-0.4771213
-4.291924	MANNA	-0.30103
-4.291924	WILDERNESS	-0.30103
-4.291924	ADAPTED	-0.30103
-3.990894	OCCASION	-0.30103
-3.990894	JOYFUL	-0.30103
-3.990894	DISTRESSING	-0.4771213
-4.291924	PREACHED	-0.30103
-4.291924	HARVEST	-0.30103
-4.291924	CELEBRATIONS	-0.30103
-3.592954	CHRISTENINGS	-0.30103
-4.291924	CONFIRMATIONS	-0.30103
-4.291924	HUMILIATION	-0.30103
-4.291924	FESTAL	-0.30103
-4.291924	DELIVERED	-0.30103
-4.291924	CATHEDRAL	-0.30103
-4.291924	BEHALF	-0.30103
-4.291924	PREVENTION	-0.30103
-4.291924	DISCONTENT	-0.30103
-4.291924	AMONG	-0.30103
-4.291924	BISHOP	-0.30103
-4.291924	STRUCK	-0.30103
-4.291924	ANALOGIES	-0.30103
-4.291924	DREW	-0.30103
-4.291924	CHRISTEN	-0.30103
-4.291924	CONTINUALLY	-0.30103
-3.814802	CHRISTENING	-0.30103
-3.990894	AREN	-0.4771213
-3.990894	REGRET	-0.4771213
-4.291924	PARISH	-0.30103
-4.291924	SPOKEN	-0.30103
-4.291924	POORER	-0.30103
-4.291924	THRIFT	-0.30103
-3.990894	INFANT	-0.30103
-3.990894	UNMARRIED	-0.30103
-3.513773	FOND	-0.60206
-3.814802	GRAVE	-0.30103
-3.990894	DOUBTS	-0.30103
-4.291924	BOTHER	-0.30103
-3.990894	SPRINKLING	-0.30103
-4.291924	IMMERSION	-0.30103
-4.291924	ADULTS	-0.30103
-4.291924	CANONICAL	-0.30103
-4.291924	APPREHENSIONS	-0.30103
-3.990894	ADVISABLE	-0.4771213
-4.291924	CHANGEABLE	-0.30103
-4.291924	CEREMONY	-0.30103
-4.291924	PERFORMED	-0.30103
-4.291924	SUIT	-0.30103
-3.990894	SIMILAR	-0.30103
-4.291924	CEREMONIES	-0.30103
-4.291924	PERFORM	-0.30103
-4.291924	TWINS	-0.30103
-3.990894	OCCURRED	-0.30103
-4.291924	RECENTLY	-0.30103
-4.291924	OUTLYING	-0.30103
-4.291924	COTTAGES	-0.30103
-4.291924	ESTATE	-0.30103
-4.291924	JENKINS	-0.30103
-4.291924	CARTER	-0.30103
-4.291924	WORKING	-0.30103
-4.291924	FUN	-0.30103
-4.291924	ALONG	-0.30103
-4.291924	BABIES	-0.30103
-3.990894	CHILDISH	-0.30103
-3.990894	PAST	-0.30103
-4.291924	INTRUDE	-0.30103
-4.291924	SORROW	-0.30103
-4.291924	BOWED	-0.30103
-4.291924	BITTER	-0.30103
-4.291924	TRIALS	-0.30103
-4.291924	BLESSINGS	-0.30103
-4.291924	DISGUISE	-0.30103
-4.291924	BLESSING	-0.30103
-3.990894	OBVIOUS	-0.30103
-3.592954	CHANGE	-0.3521825
-4.291924	TOOTHACHE	-0.30103
-3.990894	ARRIVED	-0.30103
-3.592954	AGO	-0.4259687
-3.990894	BADLY	-0.30103
-3.990894	BEHAVED	-0.4771213
-3.513773	HEARTLESS	-0.30103
-4.291924	DISOWN	-0.30103
-3.990894	SHAKE	-0.4771213
-3.814802	HANDS	-0.39794
-4.291924	TIDINGS	-0.30103
-4.291924	RESIGNED	-0.30103
-3.814802	SUDDEN	-0.30103
-3.990894	RETURN	-0.30103
-3.689864	TROUBLE	-0.3679768
-3.689864	FUTURE	-0.69897
-3.990894	REFUSE	-0.30103
-3.689864	KNOWS	-0.30103
-3.990894	VISIT	-0.30103
-4.291924	LEAVES	-0.30103
-4.291924	BED	-0.30103
-4.291924	PAIN	-0.30103
-3.990894	DRIVE	-0.30103
-4.291924	COLDNESS	-0.30103
-3.513773	PAINFUL	-0.30103
-4.291924	ENTHUSIASTIC	-0.30103
-4.291924	WELCOME	-0.30103
-3.990894	CONSIDERING	-0.30103
-3.513773	FORGIVE	-0.39794
-3.990894	RECONCILIATION	-0.30103
-3.814802	TASK	-0.39794
-3.592954	DONE	-0.30103
-3.990894	BEAUTIFUL	-0.30103
-3.990894	ACTION	-0.30103
-3.814802	PREMATURE	-0.30103
-4.291924	JUDGMENTS	-0.30103
-3.990894	SCOUNDREL	-0.30103
-4.291924	UNPACKED	-0.30103
-4.291924	PORTMANTEAUS	-0.30103
-4.291924	HAT	-0.30103
-4.291924	BOXES	-0.30103
-4.291924	LUNCHEON	-0.30103
-3.990894	STAY	-0.30103
-3.990894	MERRIMAN	-0.30103
-3.689864	DOG	-0.69897
-3.689864	CART	-0.3679768
-3.990894	FEARFUL	-0.30103
-4.291924	LIAR	-0.30103
-4.291924	INTERFERED	-0.30103
-4.291924	DEGREE	-0.30103
-3.990894	RIDICULOUS	-0.30103
-4.291924	DEEP	-0.30103
-3.814802	MOURNING	-0.30103
-3.814802	STAYING	-0.30103
-3.990894	GUEST	-0.30103
-3.990894	GROTESQUE	-0.30103
-3.814802	FOUR	-0.39794
-4.291924	UNFRIENDLY	-0.30103
-4.291924	UNKIND	-0.30103
-3.446826	ANYBODY	-0.3357921
-3.814802	RESULT	-0.30103
-3.990894	DRESSED	-0.30103
-3.990894	OCCASIONALLY	-0.30103
-4.291924	EDUCATED	-0.30103
-4.291924	VANITY	-0.30103
-3.689864	CONDUCT	-0.30103
-3.990894	OUTRAGE	-0.30103
-4.291924	PRESENCE	-0.30103
-4.291924	JOURNEY	-0.30103
-3.990894	SUCCESS	-0.30103
-3.814802	ARRANGEMENTS	-0.30103
-3.990894	ANOTHER	-0.30103
-4.291924	WATER	-0.30103
-4.291924	PARTING	-0.30103
-3.990894	BRIEF	-0.4771213
-3.990894	SPACE	-0.4771213
-4.291924	ENDURE	-0.30103
-4.291924	EQUANIMITY	-0.30103
-4.291924	MOMENTARY	-0.30103
-4.291924	SEPARATION	-0.30103
-4.291924	ANYONE	-0.30103
-4.291924	DOOR	-0.30103
-4.291924	OFFEND	-0.30103
-4.291924	OPENLY	-0.30103
-4.291924	VISIBLE	-0.30103
-4.291924	PERSONIFICATION	-0.30103
-3.990894	PERFECTION	-0.4771213
-4.291924	FRANKNESS	-0.30103
-4.291924	CREDIT	-0.30103
-3.990894	COPY	-0.30103
-4.291924	REMARKS	-0.30103
-4.291924	RECORD	-0.30103
-4.291924	THOUGHTS	-0.30103
-3.814802	IMPRESSIONS	-0.39794
-3.990894	CONSEQUENTLY	-0.30103
-4.291924	MEANT	-0.30103
-3.990894	PUBLICATION	-0.4771213
-4.291924	APPEARS	-0.30103
-4.291924	STOP	-0.30103
-3.990894	DELIGHT	-0.30103
-3.990894	TAKING	-0.30103
-4.291924	DICTATION	-0.30103
-3.513773	COUGH	-0.4771213
-4.291924	DICTATING	-0.30103
-4.291924	FLUENTLY	-0.30103
-4.291924	SPELL	-0.30103
-3.990894	LOOKED	-0.30103
-4.291924	DARED	-0.30103
-3.990894	WILDLY	-0.4771213
-3.990894	PASSIONATELY	-0.4771213
-3.990894	DEVOTEDLY	-0.4771213
-3.814802	HOPELESSLY	-0.39794
-3.592954	WAITING	-0.4259687
-4.291924	ANNOYED	-0.30103
-4.291924	CONFESSED	-0.30103
-4.291924	FORMED	-0.30103
-4.291924	CHIEF	-0.30103
-4.291924	TOPIC	-0.30103
-4.291924	TALKED	-0.30103
-4.291924	FEELS	-0.30103
-3.990894	DARESAY	-0.4771213
-4.291924	FELL	-0.30103
-3.814802	SETTLED	-0.39794
-3.990894	TH	-0.30103
-3.990894	FEBRUARY	-0.30103
-3.814802	WORN	-0.30103
-3.990894	ENTIRE	-0.30103
-4.291924	EXISTENCE	-0.30103
-4.291924	STRUGGLE	-0.30103
-4.291924	BOUGHT	-0.30103
-4.291924	BANGLE	-0.30103
-4.291924	LOVER	-0.30103
-4.291924	KNOT	-0.30103
-4.291924	WEAR	-0.30103
-3.990894	EXCUSE	-0.30103
-4.291924	BOX	-0.30103
-4.291924	REMIND	-0.30103
-3.990894	FORCED	-0.4771213
-4.291924	OFTENER	-0.30103
-4.291924	CONCEITED	-0.30103
-3.814802	BROKEN	-0.60206
-4.291924	SPELLED	-0.30103
-4.291924	CRYING	-0.30103
-4.291924	ND	-0.30103
-4.291924	MARCH	-0.30103
-4.291924	ENTRY	-0.30103
-3.990894	BROKE	-0.30103
-4.291924	CONTINUES	-0.30103
-3.814802	BREAK	-0.39794
-4.291924	HURT	-0.30103
-4.291924	FORGAVE	-0.30103
-4.291924	ANGEL	-0.30103
-4.291924	CURLS	-0.30103
-3.990894	HELP	-0.30103
-4.291924	GIRLISH	-0.30103
-3.990894	INSPIRE	-0.30103
-4.291924	LOVING	-0.30103
-4.291924	ARISTOCRATIC	-0.30103
-4.291924	CHAPS	-0.30103
-4.291924	BANKRUPTCY	-0.30103
-4.291924	SERIOUSLY	-0.30103
-4.291924	ADMIRE	-0.30103
-4.291924	UNDIVIDED	-0.30103
-3.814802	EXPERIENCED	-0.30103
-4.291924	RITES	-0.30103
-4.291924	CEREMONIALS	-0.30103
-3.990894	LEARNED	-0.30103
-4.291924	SHAN	-0.30103
-3.814802	PERIOD	-0.30103
-4.291924	IMPETUOUS	-0.30103
-3.990894	STATES	-0.30103
-4.291924	LIBRARY	-0.30103
-4.291924	DIRECTION	-0.30103
-4.291924	RECTORY	-0.30103
-4.291924	ELDERLY	-0.30103
-4.291924	ASSOCIATED	-0.30103
-3.990894	PHILANTHROPIC	-0.4771213
-3.814802	FORWARD	-0.39794
-4.291924	INTRODUCE	-0.30103
-4.291924	FAVOURABLE	-0.30103
-4.291924	MENTIONING	-0.30103
-3.990894	PAPA	-0.4771213
-4.291924	OUTSIDE	-0.30103
-4.291924	CIRCLE	-0.30103
-4.291924	UNKNOWN	-0.30103
-3.814802	PROPER	-0.30103
-4.291924	SPHERE	-0.30103
-4.291924	BEGINS	-0.30103
-4.291924	NEGLECT	-0.30103
-3.814802	BECOMES	-0.30103
-4.291924	PAINFULLY	-0.30103
-4.291924	EFFEMINATE	-0.30103
-4.291924	REMARKABLY	-0.30103
-4.291924	STRICT	-0.30103
-4.291924	SYSTEM	-0.30103
-4.291924	GLASSES	-0.30103
-3.990894	FEMALE	-0.30103
-4.291924	RELATIVE	-0.30103
-3.990894	RESIDES	-0.30103
-4.291924	ASSISTANCE	-0.30103
-4.291924	ARDUOUS	-0.30103
-4.291924	SECRETIVE	-0.30103
-4.291924	GROWS	-0.30103
-4.291924	HOURLY	-0.30103
-3.990894	NEWS	-0.30103
-4.291924	FEELINGS	-0.30103
-4.291924	UNMIXED	-0.30103
-3.814802	LIKED	-0.39794
-4.291924	EXPRESSING	-0.30103
-4.291924	OLDER	-0.30103
-4.291924	ALLURING	-0.30103
-4.291924	APPEARANCE	-0.30103
-4.291924	CANDID	-0.30103
-4.291924	CANDOUR	-0.30103
-3.814802	FORTY	-0.30103
-4.291924	STRONG	-0.30103
-4.291924	UPRIGHT	-0.30103
-4.291924	SOUL	-0.30103
-4.291924	HONOUR	-0.30103
-4.291924	DISLOYALTY	-0.30103
-4.291924	IMPOSSIBLE	-0.30103
-3.814802	DECEPTION	-0.30103
-4.291924	NOBLEST	-0.30103
-3.689864	PHYSICAL	-0.30103
-4.291924	CHARMS	-0.30103
-4.291924	LESS	-0.30103
-4.291924	ANCIENT	-0.30103
-3.990894	HISTORY	-0.30103
-4.291924	SUPPLIES	-0.30103
-4.291924	EXAMPLES	-0.30103
-4.291924	REFER	-0.30103
-4.291924	UNREADABLE	-0.30103
-3.814802	ELDER	-0.60206
-3.814802	TERMS	-0.30103
-3.990894	DISTASTEFUL	-0.30103
-4.291924	LIFTED	-0.30103
-4.291924	LOAD	-0.30103
-4.291924	GROWING	-0.30103
-4.291924	CLOUD	-0.30103
-4.291924	FRIENDSHIP	-0.30103
-4.291924	OURS	-0.30103
-3.990894	DEAREST	-0.30103
-4.291924	NEWSPAPER	-0.30103
-4.291924	CHRONICLE	-0.30103
-3.814802	ERROR	-0.39794
-4.291924	ANNOUNCEMENT	-0.30103
-3.689864	APPEAR	-0.4771213
-4.291924	POST	-0.30103
-4.291924	LATEST	-0.30103
-4.291924	MISCONCEPTION	-0.30103
-4.291924	CURIOUS	-0.30103
-4.291924	VERIFY	-0.30103
-3.814802	INCIDENT	-0.30103
-4.291924	TRAVEL	-0.30103
-4.291924	PRIOR	-0.30103
-4.291924	CLAIM	-0.30103
-4.291924	DISTRESS	-0.30103
-3.990894	CAUSED	-0.30103
-3.814802	MENTAL	-0.30103
-4.291924	ANGUISH	-0.30103
-3.990894	ENTRAPPED	-0.30103
-4.291924	RESCUE	-0.30103
-3.814802	FIRM	-0.30103
-3.990894	ENTANGLEMENT	-0.30103
-4.291924	REPROACH	-0.30103
-4.291924	ALLUDE	-0.30103
-4.291924	PRESUMPTUOUS	-0.30103
-4.291924	SUGGEST	-0.30103
-3.990894	DARE	-0.30103
-4.291924	WEARING	-0.30103
-4.291924	MASK	-0.30103
-4.291924	MANNERS	-0.30103
-3.814802	SPADE	-0.39794
-4.291924	SPHERES	-0.30103
-4.291924	WIDELY	-0.30103
-4.291924	LAY	-0.30103
-4.291924	VICINITY	-0.30103
-4.291924	TOP	-0.30103
-4.291924	HILLS	-0.30103
-4.291924	CLOSE	-0.30103
-4.291924	COUNTIES	-0.30103
-4.291924	CROWDS	-0.30103
-4.291924	KEPT	-0.30103
-3.388834	IDEA	-0.4149734
-3.990894	COMMON	-0.30103
-4.291924	MANAGES	-0.30103
-4.291924	EXIST	-0.30103
-4.291924	BORES	-0.30103
-4.291924	NEWSPAPERS	-0.30103
-4.291924	AGRICULTURAL	-0.30103
-4.291924	DEPRESSION	-0.30103
-4.291924	SUFFERING	-0.30103
-4.291924	EPIDEMIC	-0.30103
-4.291924	AMONGST	-0.30103
-3.990894	SUGAR	-0.30103
-4.291924	FASHIONABLE	-0.30103
-3.446826	CAKE	-0.3802113
-4.291924	HOUSES	-0.30103
-4.291924	FILLED	-0.30103
-4.291924	LUMPS	-0.30103
-4.291924	GENTLENESS	-0.30103
-4.291924	SWEETNESS	-0.30103
-4.291924	WARN	-0.30103
-4.291924	SAVE	-0.30103
-3.990894	INNOCENT	-0.30103
-4.291924	TRUSTING	-0.30103
-4.291924	MACHINATIONS	-0.30103
-4.291924	LENGTHS	-0.30103
-4.291924	DISTRUSTED	-0.30103
-4.291924	DECEITFUL	-0.30103
-4.291924	DECEIVED	-0.30103
-4.291924	TRESPASSING	-0.30103
-4.291924	VALUABLE	-0.30103
-4.291924	NEIGHBOURHOOD	-0.30103
-3.990894	HEAD	-0.4771213
-4.291924	ARM	-0.30103
-4.291924	WAIST	-0.30103
-3.990894	HEAVENS	-0.30103
-4.291924	EMBRACING	-0.30103
-3.446826	MONCRIEFF	-0.4393327
-4.291924	GROSS	-0.30103
-4.291924	PRACTISED	-0.30103
-4.291924	WOUNDED	-0.30103
-4.291924	WRONGED	-0.30103
-4.291924	PERMITTED	-0.30103
-3.513773	IMPORTANCE	-0.39794
-4.291924	REDUCED	-0.30103
-4.291924	INEXPERIENCED	-0.30103
-4.291924	NEITHER	-0.30103
-4.291924	VENTURE	-0.30103
-4.291924	COWARDLY	-0.30103
-4.291924	CHOOSES	-0.30103
-4.291924	AMUSEMENT	-0.30103
-4.291924	FANCY	-0.30103
-4.291924	TRIVIAL	-0.30103
-4.291924	WRETCHED	-0.30103
-3.990894	EXPLODED	-0.4771213
-4.291924	DISAPPEAR	-0.30103
-4.291924	FREQUENTLY	-0.30103
-4.291924	CUSTOM	-0.30103
-4.291924	DEFENCE	-0.30103
-4.291924	BRILLIANT	-0.30103
-3.990894	WANTED	-0.4771213
-4.291924	MARRYING	-0.30103
-4.291924	LIKELIHOOD	-0.30103
-4.291924	UNITED	-0.30103
-4.291924	STOCK	-0.30103
-4.291924	BROKERS	-0.30103
-3.689864	PARTIES	-0.69897
-3.990894	CALMLY	-0.30103
-3.212743	MUFFINS	-0.39794
-4.291924	HORRIBLE	-0.30103
-3.990894	AGITATED	-0.30103
-4.291924	CUFFS	-0.30103
-3.990894	CIRCUMSTANCES	-0.4771213
-4.291924	CONSOLES	-0.30103
-4.291924	INTIMATELY	-0.30103
-4.291924	FOOD	-0.30103
-3.990894	UNHAPPY	-0.30103
-4.291924	GREEDY	-0.30103
-4.291924	INSTEAD	-0.30103
-4.291924	VEGETARIANS	-0.30103
-4.291924	QUARTER	-0.30103
-4.291924	EVIDENCE	-0.30103
-4.291924	PROBABLE	-0.30103
-4.291924	CONSTITUTION	-0.30103
-3.990894	STAND	-0.30103
-4.291924	DANGEROUS	-0.30103
-4.291924	VENTURING	-0.30103
-4.291924	UNWELL	-0.30103
-3.689864	FORGOTTEN	-0.4771213
-4.291924	CLOSELY	-0.30103
-3.814802	CONNECTED	-0.60206
-4.291924	USEN	-0.30103
-4.291924	IMPROVEMENTS	-0.30103
-4.291924	SERVED	-0.30103
-4.291924	GUESTS	-0.30103
-4.291924	HOSPITALITY	-0.30103
-3.990894	MUFFIN	-0.30103
-4.291924	FOLLOW	-0.30103
-3.990894	SHOW	-0.30103
-3.990894	SHAME	-0.30103
-3.990894	REPENTANCE	-0.30103
-4.291924	PRESERVE	-0.30103
-3.990894	DIGNIFIED	-0.4771213
-3.990894	SILENCE	-0.30103
-4.291924	REPLY	-0.30103
-4.291924	FOLLOWING	-0.30103
-4.291924	PRETEND	-0.30103
-4.291924	AFFECT	-0.30103
-3.990894	STYLE	-0.30103
-4.291924	SINCERITY	-0.30103
-3.814802	VITAL	-0.39794
-4.291924	GRAVEST	-0.30103
-4.291924	CRUSH	-0.30103
-4.291924	SCEPTICISM	-0.30103
-4.291924	EXPLANATIONS	-0.30103
-4.291924	STAMP	-0.30103
-4.291924	CONTENT	-0.30103
-4.291924	VOICE	-0.30103
-4.291924	CREDULITY	-0.30103
-4.291924	PRINCIPLES	-0.30103
-4.291924	STAKE	-0.30103
-4.291924	SURRENDER	-0.30103
-4.291924	EXCELLENT	-0.30103
-4.291924	INSUPERABLE	-0.30103
-4.291924	BARRIER	-0.30103
-3.990894	PREPARED	-0.30103
-4.291924	ORDEAL	-0.30103
-4.291924	EQUALITY	-0.30103
-4.291924	SEXES	-0.30103
-4.291924	SELF	-0.30103
-4.291924	SACRIFICE	-0.30103
-4.291924	INFINITELY	-0.30103
-4.291924	BEYOND	-0.30103
-4.291924	MOMENTS	-0.30103
-4.291924	COURAGE	-0.30103
-3.990894	IMMEDIATELY	-0.30103
-4.291924	HESITATION	-0.30103
-4.291924	SIGN	-0.30103
-4.291924	DECAY	-0.30103
-4.291924	WEAKNESS	-0.30103
-4.291924	APPRISED	-0.30103
-4.291924	TRUSTY	-0.30103
-3.990894	MAID	-0.30103
-4.291924	PURCHASED	-0.30103
-4.291924	COIN	-0.30103
-4.291924	ATTENDING	-0.30103
-4.291924	LENGTHY	-0.30103
-4.291924	LECTURE	-0.30103
-4.291924	EXTENSION	-0.30103
-4.291924	SCHEME	-0.30103
-4.291924	UNDECEIVE	-0.30103
-4.291924	UNDECEIVED	-0.30103
-4.291924	COMMUNICATION	-0.30103
-4.291924	CEASE	-0.30103
-4.291924	REGARDS	-0.30103
-4.291924	SOMEWHERE	-0.30103
-4.291924	KILLED	-0.30103
-4.291924	VICTIM	-0.30103
-4.291924	REVOLUTIONARY	-0.30103
-4.291924	LEGISLATION	-0.30103
-4.291924	PUNISHED	-0.30103
-4.291924	MORBIDITY	-0.30103
-4.291924	DOCTORS	-0.30103
-4.291924	PHYSICIANS	-0.30103
-4.291924	ACTED	-0.30103
-4.291924	MEDICAL	-0.30103
-4.291924	ADVICE	-0.30103
-4.291924	FINALLY	-0.30103
-4.291924	HOLDING	-0.30103
-4.291924	UNNECESSARY	-0.30103
-3.990894	EXCITING	-0.30103
-4.291924	AIR	-0.30103
-3.990894	ENGAGEMENTS	-0.30103
-4.291924	ABOVE	-0.30103
-4.291924	AVERAGE	-0.30103
-4.291924	STATISTICS	-0.30103
-4.291924	GUIDANCE	-0.30103
-4.291924	PRELIMINARY	-0.30103
-4.291924	INQUIRY	-0.30103
-3.990894	LARGER	-0.4771213
-3.990894	STATIONS	-0.4771213
-3.990894	UNTIL	-0.30103
-4.291924	PERSONS	-0.30103
-4.291924	TERMINUS	-0.30103
-4.291924	GERVASE	-0.30103
-4.291924	DORKING	-0.30103
-4.291924	SURREY	-0.30103
-4.291924	SPORRAN	-0.30103
-4.291924	FIFESHIRE	-0.30103
-4.291924	N	-0.30103
-4.291924	UNSATISFACTORY	-0.30103
-4.291924	TRADESMEN	-0.30103
-4.291924	AUTHENTICITY	-0.30103
-3.990894	CAREFULLY	-0.30103
-4.291924	PRESERVED	-0.30103
-4.291924	GUIDES	-0.30103
-4.291924	INSPECTION	-0.30103
-4.291924	ERRORS	-0.30103
-4.291924	SOLICITORS	-0.30103
-4.291924	MESSRS	-0.30103
-3.388834	MARKBY	-0.4149734
-3.990894	HIGHEST	-0.30103
-4.291924	PROFESSION	-0.30103
-4.291924	SATISFIED	-0.30103
-4.291924	POSSESSION	-0.30103
-4.291924	CERTIFICATES	-0.30103
-3.990894	BAPTISM	-0.30103
-4.291924	WHOOPING	-0.30103
-4.291924	REGISTRATION	-0.30103
-4.291924	VACCINATION	-0.30103
-4.291924	CONFIRMATION	-0.30103
-4.291924	MEASLES	-0.30103
-4.291924	VARIETY	-0.30103
-4.291924	CROWDED	-0.30103
-4.291924	EXPERIENCES	-0.30103
-3.990894	APPROACHES	-0.30103
-4.291924	DEPARTURE	-0.30103
-3.990894	FORTUNE	-0.30103
-3.388834	THIRTY	-0.69897
-3.990894	POUNDS	-0.30103
-3.990894	FUNDS	-0.4771213
-4.291924	GOODBYE	-0.30103
-4.291924	SOLID	-0.30103
-3.990894	QUALITIES	-0.30103
-4.291924	SURFACES	-0.30103
-4.291924	SADLY	-0.30103
-4.291924	MARVELLOUS	-0.30103
-4.291924	RECOMMENDING	-0.30103
-4.291924	LANCING	-0.30103
-4.291924	VIEW	-0.30103
-3.990894	DISTINCT	-0.4771213
-3.814802	POSSIBILITIES	-0.39794
-3.814802	PROFILE	-0.60206
-4.291924	PRINCIPLE	-0.30103
-3.990894	CHIN	-0.30103
-4.291924	LARGELY	-0.30103
-4.291924	SWEETEST	-0.30103
-4.291924	TWOPENCE	-0.30103
-4.291924	DISRESPECTFULLY	-0.30103
-4.291924	MERCENARY	-0.30103
-4.291924	MARRIAGES	-0.30103
-4.291924	DREAMED	-0.30103
-4.291924	KISS	-0.30103
-4.291924	FINDING	-0.30103
-3.990894	INTERRUPTING	-0.4771213
-4.291924	COMES	-0.30103
-3.990894	DECLINE	-0.4771213
-4.291924	GROUNDS	-0.30103
-4.291924	OSTENTATIOUSLY	-0.30103
-4.291924	PAINS	-0.30103
-3.990894	SUSPECT	-0.30103
-4.291924	UNTRUTHFUL	-0.30103
-4.291924	OXONIAN	-0.30103
-4.291924	OBTAINED	-0.30103
-4.291924	PRETENCE	-0.30103
-4.291924	ASSUMED	-0.30103
-4.291924	DRANK	-0.30103
-3.990894	INFORMED	-0.4771213
-4.291924	BUTLER	-0.30103
-4.291924	BOTTLE	-0.30103
-4.291924	PERRIER	-0.30103
-4.291924	JOUET	-0.30103
-4.291924	BRUT	-0.30103
-4.291924	RESERVING	-0.30103
-4.291924	CONTINUING	-0.30103
-4.291924	SUCCEEDED	-0.30103
-4.291924	ALIENATING	-0.30103
-3.990894	AFFECTIONS	-0.30103
-4.291924	SUBSEQUENTLY	-0.30103
-4.291924	STAYED	-0.30103
-4.291924	DEVOURED	-0.30103
-4.291924	DECIDED	-0.30103
-4.291924	OVERLOOK	-0.30103
-3.814802	DECISION	-0.30103
-4.291924	UNALTERABLE	-0.30103
-4.291924	ALTERATION	-0.30103
-4.291924	ACCURATE	-0.30103
-4.291924	CALCULATING	-0.30103
-4.291924	ADMITTING	-0.30103
-3.990894	FREE	-0.30103
-4.291924	RESTRAINTS	-0.30103
-4.291924	TUTELAGE	-0.30103
-4.291924	GRANDFATHER	-0.30103
-4.291924	LEGALLY	-0.30103
-4.291924	CHOICE	-0.30103
-4.291924	REMAINED	-0.30103
-4.291924	DUMBLETON	-0.30103
-4.291924	ACCUMULATION	-0.30103
-4.291924	PROPERTY	-0.30103
-4.291924	CROSS	-0.30103
-4.291924	PUNCTUAL	-0.30103
-4.291924	PUNCTUALITY	-0.30103
-4.291924	POSITIVELY	-0.30103
-4.291924	REMARK	-0.30103
-4.291924	IMPATIENT	-0.30103
-4.291924	RECONSIDER	-0.30103
-4.291924	GLADLY	-0.30103
-4.291924	PASSIONATE	-0.30103
-4.291924	DESTINY	-0.30103
-4.291924	MISSED	-0.30103
-4.291924	TRAINS	-0.30103
-4.291924	EXPOSE	-0.30103
-4.291924	COMMENT	-0.30103
-4.291924	PLATFORM	-0.30103
-4.291924	GENTLEMEN	-0.30103
-4.291924	IMMEDIATE	-0.30103
-4.291924	IRRELIGIOUS	-0.30103
-4.291924	FORBID	-0.30103
-4.291924	BAPTIZED	-0.30103
-4.291924	HIGHLY	-0.30103
-4.291924	DISPLEASED	-0.30103
-4.291924	WASTED	-0.30103
-4.291924	PRACTICAL	-0.30103
-4.291924	VALUE	-0.30103
-4.291924	GRIEVED	-0.30103
-4.291924	SENTIMENTS	-0.30103
-4.291924	SAVOUR	-0.30103
-4.291924	HERETICAL	-0.30103
-4.291924	ANABAPTISTS	-0.30103
-4.291924	REFUTED	-0.30103
-4.291924	UNPUBLISHED	-0.30103
-4.291924	SERMONS	-0.30103
-3.990894	MOOD	-0.30103
-4.291924	SECULAR	-0.30103
-4.291924	PEW	-0.30103
-4.291924	OPENER	-0.30103
-3.990894	VESTRY	-0.30103
-4.291924	JOIN	-0.30103
-4.291924	DETAIN	-0.30103
-4.291924	REPELLENT	-0.30103
-4.291924	ASPECT	-0.30103
-4.291924	REMOTELY	-0.30103
-4.291924	CULTIVATED	-0.30103
-4.291924	LADIES	-0.30103
-4.291924	PICTURE	-0.30103
-4.291924	HOLDS	-0.30103
-4.291924	HOUSEHOLD	-0.30103
-4.291924	CELIBATE	-0.30103
-4.291924	MADAM	-0.30103
-4.291924	ESTEEMED	-0.30103
-4.291924	VALUED	-0.30103
-4.291924	COMPANION	-0.30103
-4.291924	SPITE	-0.30103
-4.291924	NIGH	-0.30103
-4.291924	CANON	-0.30103
-4.291924	QUARTERS	-0.30103
-3.446826	BABY	-0.3357921
-3.814802	PERAMBULATOR	-0.30103
-3.814802	CONTAINED	-0.30103
-4.291924	MALE	-0.30103
-4.291924	WEEKS	-0.30103
-3.990894	LATER	-0.30103
-4.291924	ELABORATE	-0.30103
-4.291924	INVESTIGATIONS	-0.30103
-4.291924	METROPOLITAN	-0.30103
-4.291924	POLICE	-0.30103
-4.291924	DISCOVERED	-0.30103
-4.291924	MIDNIGHT	-0.30103
-4.291924	ITSELF	-0.30103
-4.291924	REMOTE	-0.30103
-4.291924	CORNER	-0.30103
-4.291924	BAYSWATER	-0.30103
-4.291924	REVOLTING	-0.30103
-4.291924	SENTIMENTALITY	-0.30103
-4.291924	BRANDED	-0.30103
-4.291924	CAPACIOUS	-0.30103
-4.291924	INTENDED	-0.30103
-4.291924	UNOCCUPIED	-0.30103
-4.291924	HOURS	-0.30103
-4.291924	ABSTRACTION	-0.30103
-3.990894	DEPOSITED	-0.4771213
-4.291924	BASINETTE	-0.30103
-4.291924	DEPOSIT	-0.30103
-4.291924	INSIST	-0.30103
-4.291924	COINCIDENCES	-0.30103
-4.291924	SUPPOSED	-0.30103
-4.291924	OCCUR	-0.30103
-4.291924	CONSIDERED	-0.30103
-4.291924	STRANGELY	-0.30103
-4.291924	EMOTIONAL	-0.30103
-4.291924	NOISE	-0.30103
-4.291924	ARGUMENT	-0.30103
-4.291924	DISLIKE	-0.30103
-4.291924	ARGUMENTS	-0.30103
-4.291924	CONVINCING	-0.30103
-4.291924	STOPPED	-0.30103
-4.291924	ARRIVE	-0.30103
-4.291924	CONCLUSION	-0.30103
-4.291924	SUSPENSE	-0.30103
-4.291924	EXAMINE	-0.30103
-4.291924	INJURY	-0.30103
-4.291924	UPSETTING	-0.30103
-4.291924	GOWER	-0.30103
-4.291924	OMNIBUS	-0.30103
-4.291924	HAPPIER	-0.30103
-4.291924	STAIN	-0.30103
-4.291924	LINING	-0.30103
-4.291924	EXPLOSION	-0.30103
-4.291924	TEMPERANCE	-0.30103
-4.291924	BEVERAGE	-0.30103
-4.291924	LEAMINGTON	-0.30103
-4.291924	LOCK	-0.30103
-4.291924	INITIALS	-0.30103
-4.291924	EXTRAVAGANT	-0.30103
-4.291924	UNDOUBTEDLY	-0.30103
-4.291924	DELIGHTED	-0.30103
-4.291924	UNEXPECTEDLY	-0.30103
-3.990894	RESTORED	-0.4771213
-4.291924	INCONVENIENCE	-0.30103
-4.291924	CAST	-0.30103
-4.291924	SUFFERED	-0.30103
-4.291924	WIPE	-0.30103
-4.291924	ACT	-0.30103
-4.291924	FOLLY	-0.30103
-4.291924	LAW	-0.30103
-4.291924	INQUISITIVE	-0.30103
-4.291924	ALTOGETHER	-0.30103
-3.990894	SON	-0.30103
-4.291924	MRS	-0.30103
-4.291924	DOUBTED	-0.30103
-4.291924	IRREVOCABLE	-0.30103
-4.291924	NOBLE	-0.30103
-4.291924	LUXURY	-0.30103
-4.291924	INCLUDING	-0.30103
-4.291924	LAVISHED	-0.30103
-4.291924	DOTING	-0.30103
-4.291924	ELDEST	-0.30103
-4.291924	RECALL	-0.30103
-3.689864	GENERAL	-0.3679768
-4.291924	ECCENTRIC	-0.30103
-4.291924	INDIAN	-0.30103
-4.291924	CLIMATE	-0.30103
-4.291924	INDIGESTION	-0.30103
-4.291924	RECOLLECT	-0.30103
-3.990894	ARMY	-0.4771213
-3.990894	LISTS	-0.4771213
-4.291924	ESSENTIALLY	-0.30103
-4.291924	PEACE	-0.30103
-4.291924	MILITARY	-0.30103
-4.291924	DIRECTORY	-0.30103
-4.291924	RECORDS	-0.30103
-4.291924	STUDY	-0.30103
-4.291924	GENERALS	-0.30103
-4.291924	MALLAM	-0.30103
-4.291924	MAXBOHM	-0.30103
-4.291924	MAGLEY	-0.30103
-4.291924	MIGSBY	-0.30103
-4.291924	MOBBS	-0.30103
-3.990894	LIEUTENANT	-0.30103
-4.291924	CAPTAIN	-0.30103
-3.990894	COLONEL	-0.30103
-4.291924	DISLIKING	-0.30103
-4.291924	DISPLAYING	-0.30103
-4.291924	SIGNS	-0.30103
-4.291924	CONTRARY	-0.30103
-4.291924	REALISED	-0.30103

\2-grams:
-2.957999	<s> MORNING	-0.4771213
-1.817331	<s> IN	-0.5563025
-2.763058	<s> ALGERNON	-0.30103
-3.234316	<s> HALF	-0.30103
-1.447383	<s> THE	-0.3320643
-2.220681	<s> IS	-0.3802112
-1.662955	<s> AND	-0.4191293
-2.044428	<s> OF	-1.146128
-1.879838	<s> A	-0.3233064
-2.559597	<s> DID	-0.544068
-1.307046	<s> YOU	-0.5947608
-1.677857	<s> WHAT	-0.4191293
-0.7422764	<s> I	-0.6713866
-2.581798	<s> WAS	-0.3679768
-2.955694	<s> LANE	-0.30103
-3.252149	<s> DIDN	-0.30103
-1.293593	<s> IT	-0.6642079
-1.958496	<s> TO	-0.31627
-3.213008	<s> M	-0.30103
-2.348166	<s> FOR	-0.3357921
-1.593509	<s> THAT	-0.544068
-2.062615	<s> YOUR	-0.3735807
-3.013218	<s> DON	-0.30103
-2.480439	<s> ONE	-0.3521825
-2.71823	<s> CAN	-0.39794
-1.472386	<s> BUT	-0.5228787
-2.808816	<s> WITH	-0.30103
-2.37329	<s> AS	-0.5228788
-1.656507	<s> MY	-0.5642714
-3.266021	<s> SCIENCE	-0.30103
-2.649928	<s> HAVE	-0.30103
-3.204769	<s> GOT	-0.30103
-2.631166	<s> LADY	-0.4771213
-1.673461	<s> OH	-0.4376129
-2.75141	<s> BY	-0.60206
-2.471728	<s> FROM	-0.4771213
-2.378738	<s> ON	-0.4393327
-2.266021	<s> WHEN	-0.4771213
-3.247621	<s> LORD	-0.30103
-1.940458	<s> MR	-0.90309
-2.71823	<s> WORTHING	-0.30103
-2.920376	<s> WERE	-0.30103
-2.617685	<s> ARE	-0.30103
-1.662386	<s> YES	-0.4701723
-2.123939	<s> WHY	-0.3565473
-2.547239	<s> AT	-0.3679768
-3.200708	<s> ASK	-0.30103
-3.243141	<s> MERELY	-0.30103
-3.158371	<s> MARRIED	-0.30103
-2.44823	<s> SO	-0.39794
-3.225667	<s> BELIEVE	-0.30103
-2.683702	<s> VERY	-0.30103
-3.051621	<s> HAD	-0.30103
-2.760117	<s> ONLY	-0.39794
-3.252149	<s> BETWEEN	-0.30103
-3.173293	<s> YOUNG	-0.30103
-2.774163	<s> AM	-0.4771213
-3.136908	<s> MUCH	-0.30103
-2.141368	<s> NO	-0.3388186
-2.617685	<s> NOT	-0.39794
-2.531	<s> NEVER	-0.3521825
-2.835878	<s> WILL	-0.30103
-2.171075	<s> DO	-0.60206
-2.319681	<s> THANK	-1
-2.909904	<s> REALLY	-0.30103
-1.961015	<s> IF	-0.544068
-2.757195	<s> GOOD	-0.30103
-1.949431	<s> THEY	-0.4393328
-2.510724	<s> ERNEST	-0.3521825
-2.016529	<s> HOW	-0.3273589
-2.60784	<s> DEAR	-0.30103
-3.266021	<s> BRING	-0.30103
-3.247621	<s> EATING	-0.30103
-2.420923	<s> ALGY	-0.3802112
-3.116455	<s> SOME	-0.30103
-2.426326	<s> WHERE	-0.4393327
-1.986033	<s> THERE	-0.6812412
-2.911978	<s> PEOPLE	-0.30103
-2.734503	<s> WHO	-0.30103
-2.802306	<s> ALL	-0.30103
-2.955694	<s> THESE	-0.30103
-3.136908	<s> AUNT	-0.30103
-2.116549	<s> GWENDOLEN	-0.3174204
-1.610784	<s> WELL	-0.4423591
-2.781138	<s> WON	-0.60206
-3.051621	<s> QUITE	-0.30103
-3.200708	<s> BEING	-0.30103
-2.638858	<s> HERE	-0.4771213
-2.408353	<s> MAY	-0.90309
-2.557754	<s> COME	-0.3521826
-2.876075	<s> HER	-0.30103
-2.654664	<s> NOTHING	-0.3679768
-2.846477	<s> ABOUT	-0.30103
-2.231083	<s> THEN	-0.3467875
-2.937676	<s> CERTAINLY	-0.30103
-3.275521	<s> DIVORCES	-0.30103
-3.136908	<s> TIME	-0.30103
-2.260419	<s> SHE	-0.4771212
-3.247621	<s> BREAD	-0.30103
-3.266021	<s> GIRLS	-0.30103
-3.22997	<s> MEN	-0.30103
-2.113232	<s> CECILY	-0.4393327
-1.883272	<s> HE	-0.4336555
-1.983328	<s> THIS	-0.3912066
-2.663961	<s> LET	-0.3679768
-3.040297	<s> WOULD	-0.30103
-2.911978	<s> MORE	-0.30103
-2.409659	<s> NOW	-0.3357921
-2.370037	<s> HOWEVER	-0.3679769
-3.213008	<s> ISN	-0.30103
-3.177105	<s> AFTER	-0.30103
-2.960317	<s> MODERN	-0.30103
-2.964991	<s> CHARMING	-0.30103
-3.200708	<s> OLD	-0.30103
-3.256724	<s> LIVES	-0.30103
-3.188746	<s> JUST	-0.30103
-3.256724	<s> SURELY	-0.30103
-2.719563	<s> AN	-0.30103
-2.9534	<s> EVERY	-0.30103
-2.418246	<s> UNCLE	-0.90309
-2.748546	<s> JACK	-0.30103
-2.321279	<s> BESIDES	-0.39794
-3.15472	<s> OR	-0.30103
-3.169514	<s> GO	-0.30103
-2.935476	<s> TELL	-0.30103
-3.243141	<s> BUNBURYIST	-0.30103
-2.42837	<s> PRAY	-0.3010299
-2.724936	<s> HIS	-0.30103
-2.174107	<s> MISS	-0.6989699
-3.188746	<s> COULD	-0.30103
-3.22997	<s> UNDER	-0.30103
-3.247621	<s> HEALTH	-0.30103
-3.081291	<s> BROTHER	-0.30103
-3.275521	<s> LITERARY	-0.30103
-2.747121	<s> BUNBURY	-0.39794
-3.256724	<s> WHENEVER	-0.30103
-3.256724	<s> RELATIONS	-0.30103
-2.314922	<s> INDEED	-0.447158
-2.935476	<s> EVEN	-0.30103
-3.238706	<s> WOMEN	-0.30103
-3.221406	<s> LONDON	-0.30103
-3.234316	<s> THEIR	-0.30103
-2.939888	<s> WHICH	-0.30103
-2.942111	<s> THREE	-0.30103
-3.266021	<s> NONE	-0.30103
-3.261347	<s> FRENCH	-0.30103
-2.372431	<s> AH	-0.4149733
-2.182942	<s> WE	-0.3424226
-3.208869	<s> POOR	-0.30103
-3.256724	<s> TWENTY	-0.30103
-3.256724	<s> SIT	-0.30103
-2.974491	<s> THANKS	-0.30103
-3.243141	<s> MAMMA	-0.30103
-3.22997	<s> CANNOT	-0.30103
-3.225667	<s> SHALL	-0.30103
-2.974491	<s> FORTUNATELY	-0.30103
-3.266021	<s> NOR	-0.30103
-3.275521	<s> ILLNESS	-0.30103
-3.217187	<s> SOMETHING	-0.30103
-3.256724	<s> PARTICULARLY	-0.30103
-2.972097	<s> WHATEVER	-0.30103
-3.243141	<s> STILL	-0.30103
-3.252149	<s> KINDLY	-0.30103
-2.962648	<s> FEW	-0.30103
-2.787336	<s> COULDN	-0.60206
-2.974491	<s> PERSONALLY	-0.30103
-3.270745	<s> LOTS	-0.30103
-3.188746	<s> HAND	-0.30103
-3.256724	<s> ESPECIALLY	-0.30103
-3.270745	<s> RISE	-0.30103
-3.266021	<s> FINISHED	-0.30103
-3.247621	<s> PARDON	-0.30103
-3.275521	<s> WHILE	-0.30103
-3.247621	<s> MOTHER	-0.30103
-3.270745	<s> IDLE	-0.30103
-3.252149	<s> EVERYTHING	-0.30103
-3.266021	<s> IGNORANCE	-0.30103
-2.955694	<s> BOTH	-0.30103
-3.261347	<s> BECAUSE	-0.30103
-3.204769	<s> MIGHT	-0.30103
-2.948849	<s> OUR	-0.30103
-2.960317	<s> UPON	-0.30103
-3.275521	<s> EVERYBODY	-0.30103
-3.247621	<s> PRETTY	-0.30103
-3.261347	<s> EIGHTEEN	-0.30103
-3.270745	<s> NOBODY	-0.30103
-3.247621	<s> GARDEN	-0.30103
-3.270745	<s> BASKET	-0.30103
-3.22997	<s> CHILD	-0.30103
-3.266021	<s> SOMETIMES	-0.30103
-3.266021	<s> MEMORY	-0.30103
-2.9534	<s> DR	-0.4771213
-3.22997	<s> CHASUBLE	-0.30103
-2.969715	<s> HORRID	-0.30103
-3.275521	<s> MATURITY	-0.30103
-3.275521	<s> RIPENESS	-0.30103
-2.972097	<s> PERHAPS	-0.30103
-3.266021	<s> CHARITY	-0.30103
-3.270745	<s> SPRINKLING	-0.30103
-3.270745	<s> CONSIDERING	-0.30103
-3.270745	<s> MERRIMAN	-0.30103
-3.266021	<s> HOPELESSLY	-0.30103
-3.266021	<s> WORN	-0.30103
-3.275521	<s> OUTSIDE	-0.30103
-3.275521	<s> DISLOYALTY	-0.30103
-3.270745	<s> DEAREST	-0.30103
-3.270745	<s> SUGAR	-0.30103
-2.962648	<s> CAKE	-0.30103
-3.247621	<s> MONCRIEFF	-0.30103
-3.270745	<s> STYLE	-0.30103
-3.275521	<s> HESITATION	-0.30103
-3.275521	<s> APPRISED	-0.30103
-3.270745	<s> UNTIL	-0.30103
-2.960317	<s> MARKBY	-0.30103
-3.243141	<s> THIRTY	-0.30103
-3.275521	<s> GOODBYE	-0.30103
-3.275521	<s> CONTINUING	-0.30103
-3.275521	<s> EXAMINE	-0.30103
-3.270745	<s> LIEUTENANT	-0.30103
-0.7885927	MORNING </s>
-0.9015406	MORNING ROOM	-0.30103
-1.149221	MORNING OF	-0.30103
-1.201335	MORNING SIR	-0.30103
-1.190972	MORNING WITH	-0.30103
-1.192178	MORNING MR	-0.30103
-1.203965	MORNING POST	-0.30103
-0.8903221	ROOM </s>
-1.420643	ROOM IN	-0.30103
-1.370844	ROOM THE	-0.30103
-1.396409	ROOM IS	-0.30103
-1.431286	ROOM AND	-0.30103
-1.400665	ROOM OF	-0.30103
-0.8674231	ROOM FOR	-0.3679768
-1.410634	ROOM THAT	-0.30103
-0.7725988	ROOM AT	-0.3521825
-1.174763	ROOM NEXT	-0.4771213
-1.498591	IN </s>
-2.506235	IN ALGERNON	-0.30103
-2.242315	IN HALF	-0.30103
-0.6992337	IN THE	-0.4096257
-1.569938	IN A	-0.4149733
-2.020726	IN WHAT	-0.30103
-2.217585	IN IT	-0.30103
-1.62807	IN THAT	-0.3357921
-1.571035	IN YOUR	-0.30103
-1.827726	IN ANY	-0.4259687
-1.898705	IN ONE	-0.3679768
-1.35405	IN MY	-0.4259687
-2.49619	IN LIFE	-0.30103
-2.225133	IN MARRIED	-0.30103
-2.550787	IN CONSEQUENCE	-0.30103
-2.438904	IN NO	-0.30103
-2.497848	IN REALLY	-0.30103
-2.224247	IN GOOD	-0.4771213
-2.504544	IN THEM	-0.30103
-2.49619	IN HOW	-0.30103
-1.644426	IN TOWN	-0.5642714
-2.481544	IN SOME	-0.30103
-2.545194	IN SHROPSHIRE	-0.30103
-2.409464	IN ALL	-0.30103
-2.521753	IN SUCH	-0.30103
-2.520001	IN BEING	-0.30103
-1.939903	IN LOVE	-0.4771212
-2.548915	IN PROPOSING	-0.30103
-2.446218	IN ABOUT	-0.30103
-1.372948	IN FACT	-0.4259687
-2.54705	IN HEAVEN	-0.30103
-2.031946	IN THIS	-0.30103
-2.548915	IN PRIVATE	-0.30103
-1.924547	IN AN	-0.3679768
-2.06869	IN EVERY	-0.39794
-2.513063	IN MOST	-0.30103
-2.548915	IN SAYING	-0.30103
-1.637267	IN HIS	-0.30103
-2.438904	IN MISS	-0.30103
-2.548915	IN CHARGE	-0.30103
-1.771699	IN ORDER	-0.60206
-2.543345	IN YOUNGER	-0.30103
-2.54705	IN DOING	-0.30103
-2.543345	IN WHOM	-0.30103
-1.550225	IN LONDON	-0.544068
-2.534217	IN THEIR	-0.30103
-2.247885	IN PUBLIC	-0.30103
-2.222481	IN HIM	-0.30103
-1.94267	IN WHICH	-0.3679768
-2.527051	IN YEARS	-0.30103
-2.525277	IN THINGS	-0.30103
-2.532415	IN MANY	-0.30103
-2.543345	IN ITS	-0.30103
-2.247885	IN OTHERS	-0.30103
-2.54705	IN MAKING	-0.30103
-2.550787	IN ENGLAND	-0.30103
-2.548915	IN GROSVENOR	-0.30103
-2.545194	IN LAND	-0.30103
-2.249757	IN INVESTMENTS	-0.30103
-2.543345	IN POINT	-0.30103
-2.24882	IN BELGRAVE	-0.4771213
-2.54705	IN MATTERS	-0.30103
-2.550787	IN SUSSEX	-0.30103
-2.548915	IN MISTAKE	-0.30103
-2.541504	IN SOCIAL	-0.30103
-2.239556	IN OUR	-0.30103
-2.550787	IN CIVILISED	-0.30103
-1.851817	IN PARIS	-0.3521825
-2.24882	IN FAMILIES	-0.30103
-2.073666	IN FAVOUR	-0.60206
-2.545194	IN VOLUME	-0.30103
-2.550787	IN EARLIER	-0.30103
-2.548915	IN NECKTIES	-0.30103
-2.550787	IN DISGUISE	-0.30103
-2.545194	IN TROUBLE	-0.30103
-2.550787	IN DEEP	-0.30103
-2.24882	IN MOURNING	-0.30103
-2.54705	IN FOUR	-0.30103
-2.548915	IN TAKING	-0.30103
-2.548915	IN PHILANTHROPIC	-0.30103
-2.550787	IN APPEARANCE	-0.30103
-2.550787	IN TRADESMEN	-0.30103
-2.550787	IN ALIENATING	-0.30103
-2.550787	IN SPITE	-0.30103
-2.548915	IN LATER	-0.30103
-0.5075459	ALGERNON </s>
-1.583633	ALGERNON ALGERNON	-0.30103
-1.278373	ALGERNON S	-0.30103
-1.235899	ALGERNON IS	-0.30103
-1.49407	ALGERNON OF	-0.30103
-1.185158	ALGERNON I	-0.30103
-1.552737	ALGERNON FOR	-0.30103
-1.506466	ALGERNON THAT	-0.30103
-1.559654	ALGERNON BUT	-0.30103
-1.584768	ALGERNON FIRST	-0.30103
-1.571892	ALGERNON HAS	-0.30103
-1.587333	ALGERNON OUR	-0.30103
-1.589051	ALGERNON MONCRIEFF	-0.30103
-1.286376	S </s>
-2.165878	S FLAT	-0.30103
-1.587289	S THE	-0.30103
-1.800419	S IS	-0.30103
-1.540844	S A	-0.30103
-1.723962	S TO	-0.30103
-1.862699	S SAKE	-0.30103
-2.024832	S ONE	-0.30103
-2.057152	S ON	-0.30103
-2.165878	S ESTABLISHMENT	-0.30103
-1.808982	S VERY	-0.30103
-2.155937	S PLEASANT	-0.30103
-2.16017	S FAMILY	-0.30103
-1.998644	S NOT	-0.30103
-2.076594	S WILL	-0.30103
-2.16159	S VIEWS	-0.30103
-2.053809	S ALL	-0.30103
-2.14348	S SUCH	-0.30103
-1.677881	S PERFECTLY	-0.30103
-2.16017	S DELIGHTFUL	-0.30103
-2.154535	S BUSINESS	-0.30103
-2.147593	S GOING	-0.30103
-2.154535	S NONSENSE	-0.30103
-2.16159	S EXTRAORDINARY	-0.30103
-2.157343	S CONSENT	-0.30103
-2.16159	S MINE	-0.30103
-2.118301	S JACK	-0.30103
-2.122181	S OWN	-0.30103
-2.136711	S MOST	-0.30103
-2.148973	S GUARDIAN	-0.30103
-1.86056	S DUTY	-0.30103
-2.157343	S HEALTH	-0.30103
-1.864131	S HAPPINESS	-0.30103
-1.665905	S BROTHER	-0.39794
-2.165878	S CLEAN	-0.30103
-2.146218	S THINGS	-0.30103
-2.105613	S WE	-0.30103
-1.861985	S DEATH	-0.30103
-2.153138	S MIND	-0.30103
-2.16159	S NOTICE	-0.30103
-2.164444	S TEMPORARY	-0.30103
-2.165878	S SOLITUDE	-0.30103
-2.138057	S HAND	-0.30103
-2.163015	S GONE	-0.30103
-2.165878	S LIFETIME	-0.30103
-2.146218	S HOUSE	-0.30103
-2.155937	S CHARACTER	-0.30103
-2.163015	S BIRTH	-0.30103
-2.163015	S HEREDITARY	-0.30103
-1.86056	S WARD	-0.30103
-2.164444	S FACE	-0.30103
-1.686369	S CHRISTIAN	-0.60206
-2.16159	S LESSON	-0.30103
-2.164444	S ADMISSION	-0.30103
-2.164444	S PUPIL	-0.30103
-2.163015	S LUGGAGE	-0.30103
-2.164444	S W	-0.30103
-2.163015	S SUDDEN	-0.30103
-2.165878	S COLDNESS	-0.30103
-2.16159	S CONDUCT	-0.30103
-2.165878	S RECORD	-0.30103
-2.165878	S KNOT	-0.30103
-1.864131	S ELDER	-0.4771213
-2.163015	S PROFILE	-0.30103
-2.165878	S ESTEEMED	-0.30103
-0.2950399	FLAT IN	-0.30103
-1.203987	HALF MOON	-0.30103
-1.13729	HALF THE	-0.30103
-0.8787077	HALF OF	-0.30103
-0.6001681	HALF AN	-0.69897
-1.195035	HALF MISS	-0.30103
-1.203854	HALF PAST	-0.30103
-0.3009635	MOON STREET	-0.30103
-0.6782756	STREET </s>
-0.7604234	STREET IN	-0.30103
-0.7780847	STREET OMNIBUS	-0.30103
-2.59458	THE MORNING	-0.30103
-2.405332	THE ROOM	-0.39794
-2.917743	THE SOUND	-0.30103
-2.911303	THE PIANO	-0.30103
-2.917743	THE ADJOINING	-0.30103
-2.60079	THE WONDERFUL	-0.30103
-2.904958	THE EXPRESSION	-0.30103
-2.904958	THE SCIENCE	-0.30103
-2.607089	THE CUCUMBER	-0.4771213
-2.505688	THE LADY	-0.30103
-1.908754	THE WAY	-0.30103
-2.585257	THE MR	-0.30103
-2.610273	THE DINING	-0.4771213
-2.613481	THE CHAMPAGNE	-0.30103
-2.917743	THE SERVANTS	-0.30103
-2.917743	THE SUPERIOR	-0.30103
-2.911303	THE WINE	-0.30103
-1.954229	THE FIRST	-0.447158
-2.880464	THE MARRIAGE	-0.30103
-2.125698	THE VERY	-0.3521825
-2.743695	THE LITTLE	-0.30103
-2.128911	THE PRESENT	-0.39794
-1.866438	THE ONLY	-0.4101744
-2.547864	THE YOUNG	-0.30103
-2.607089	THE FAMILY	-0.30103
-2.070795	THE SUBJECT	-0.3802112
-2.917743	THE LOWER	-0.30103
-2.761434	THE GOOD	-0.30103
-2.904958	THE USE	-0.30103
-2.880464	THE SENSE	-0.30103
-2.63305	THE DEAR	-0.30103
-2.846134	THE PLEASURE	-0.30103
-2.892538	THE SOCIETY	-0.30103
-1.872241	THE LAST	-0.4101745
-1.712813	THE COUNTRY	-0.4436975
-2.829936	THE OTHER	-0.30103
-2.761434	THE PEOPLE	-0.30103
-2.765985	THE COURSE	-0.30103
-2.846134	THE BAD	-0.30103
-2.917743	THE EXCITEMENT	-0.30103
-1.764719	THE FACT	-0.5797836
-2.917743	THE DIVORCE	-0.30103
-2.904958	THE COURT	-0.30103
-2.04744	THE TIME	-0.4393327
-2.20473	THE MATTER	-0.3521825
-2.880464	THE BREAD	-0.30103
-2.874551	THE BUTTER	-0.30103
-2.567687	THE PLACE	-0.30103
-2.857279	THE MEN	-0.30103
-2.829936	THE RIGHT	-0.30103
-2.135288	THE TRUTH	-0.3424227
-2.898704	THE ACCOUNTS	-0.30103
-2.610273	THE EXTRAORDINARY	-0.30103
-2.898704	THE NUMBER	-0.30103
-2.616713	THE SECOND	-0.4771213
-2.070795	THE WHOLE	-0.3357921
-2.133152	THE QUESTION	-0.3979401
-1.753019	THE NAME	-0.6532125
-2.868717	THE CIGARETTE	-0.30103
-2.570594	THE CASE	-0.30103
-2.911303	THE SMOKING	-0.30103
-2.534238	THE MORE	-0.30103
-2.119519	THE THING	-0.30103
-2.917743	THE INSCRIPTION	-0.30103
-2.868717	THE ABSURD	-0.30103
-2.874551	THE MODERN	-0.30103
-2.610273	THE SORT	-0.4771213
-2.567687	THE OLD	-0.30103
-2.122627	THE MOST	-0.30103
-2.315683	THE ALBANY	-0.3679768
-2.840667	THE BETTER	-0.30103
-2.904958	THE FALSE	-0.30103
-2.911303	THE IMPRESSION	-0.30103
-2.616713	THE MEANING	-0.4771213
-2.403343	THE KIND	-0.39794
-2.898704	THE ORDINARY	-0.30103
-2.613481	THE GRAND	-0.30103
-2.911303	THE CHARGE	-0.30103
-2.425742	THE TWO	-0.30103
-2.874551	THE POSITION	-0.30103
-2.904958	THE HAPPINESS	-0.30103
-2.911303	THE UNIVERSITY	-0.30103
-2.911303	THE DAILY	-0.30103
-2.730851	THE BUNBURY	-0.30103
-2.585429	THE WEEK	-0.30103
-2.315683	THE SMALLEST	-0.3679768
-2.868717	THE WOMAN	-0.30103
-2.917743	THE THIRD	-0.30103
-2.302898	THE NEXT	-0.3679768
-2.880464	THE DINNER	-0.30103
-2.892538	THE TABLE	-0.30103
-2.917743	THE INCREASE	-0.30103
-2.917743	THE AMOUNT	-0.30103
-2.917743	THE RULES	-0.30103
-1.9635	THE SAME	-0.3590219
-2.765985	THE MAN	-0.30103
-2.413381	THE THREE	-0.39794
-2.911303	THE THEORY	-0.30103
-2.917743	THE CORRUPT	-0.30103
-2.898704	THE FRENCH	-0.30103
-2.898704	THE HAPPY	-0.30103
-2.911303	THE ENGLISH	-0.30103
-2.904958	THE HOME	-0.30103
-2.886459	THE OPPORTUNITY	-0.30103
-2.911303	THE SHALLOW	-0.30103
-2.835268	THE AFTERNOON	-0.30103
-2.835268	THE THINGS	-0.30103
-2.857279	THE MANY	-0.30103
-2.613481	THE LATE	-0.4771213
-2.829936	THE POOR	-0.30103
-2.917743	THE MARKET	-0.30103
-2.911303	THE CAUSE	-0.30103
-2.917743	THE PRIMARY	-0.30103
-2.886459	THE MUSIC	-0.30103
-2.434182	THE END	-0.39794
-2.616713	THE SEASON	-0.30103
-2.616713	THE PROGRAMME	-0.30103
-2.288951	THE MOMENT	-0.30103
-2.857279	THE GERMAN	-0.30103
-2.851671	THE DAY	-0.30103
-2.314064	THE WEATHER	-0.30103
-2.898704	THE ABSENCE	-0.30103
-2.415417	THE AGE	-0.39794
-2.917743	THE PROVINCIAL	-0.30103
-2.917743	THE ACTUAL	-0.30103
-2.892538	THE PLAIN	-0.30103
-2.917743	THE ENTRANCING	-0.30103
-2.05986	THE HAND	-0.90309
-2.597674	THE WORLD	-0.30103
-2.607089	THE PRACTICE	-0.4771213
-2.591508	THE ENGAGEMENT	-0.30103
-2.438464	THE CARRIAGE	-0.39794
-2.911303	THE OPINION	-0.30103
-2.917743	THE BLOOM	-0.30103
-2.613481	THE UPPER	-0.30103
-2.898704	THE YEAR	-0.30103
-2.610273	THE DUTIES	-0.30103
-2.415417	THE HOUSE	-0.39794
-2.917743	THE POACHERS	-0.30103
-2.917743	THE UNFASHIONABLE	-0.30103
-2.607089	THE SIDE	-0.30103
-2.917743	THE FASHION	-0.30103
-2.904958	THE EVENING	-0.30103
-2.917743	THE RADICAL	-0.30103
-2.917743	THE PURPLE	-0.30103
-2.917743	THE RANKS	-0.30103
-2.616713	THE ARISTOCRACY	-0.30103
-2.603928	THE GENTLEMAN	-0.30103
-2.911303	THE CHARITABLE	-0.30103
-2.829936	THE BAG	-0.30103
-2.436318	THE CLOAK	-0.60206
-2.892538	THE STATION	-0.30103
-2.616713	THE BRIGHTON	-0.4771213
-2.904958	THE LINE	-0.30103
-2.616713	THE WORST	-0.30103
-2.880464	THE PARTICULAR	-0.30103
-2.917743	THE UTMOST	-0.30103
-2.616713	THE REMOTEST	-0.30103
-2.904958	THE WORD	-0.30103
-2.886459	THE CLEVER	-0.30103
-2.911303	THE TRUE	-0.30103
-2.917743	THE PROFLIGATE	-0.30103
-2.917743	THE CLUB	-0.30103
-2.917743	THE EMPIRE	-0.30103
-2.607089	THE INFLUENCE	-0.4771213
-2.917743	THE STORY	-0.30103
-2.917743	THE DEEPER	-0.30103
-2.917743	THE SIMPLICITY	-0.30103
-2.440621	THE MANOR	-0.60206
-2.917743	THE BELL	-0.30103
-2.610273	THE BEST	-0.30103
-2.904958	THE INTELLECTUAL	-0.30103
-2.432057	THE GARDEN	-0.39794
-2.911303	THE ROSES	-0.30103
-2.917743	THE WATERING	-0.30103
-2.904958	THE PLEASURES	-0.30103
-2.874551	THE DIARY	-0.30103
-2.315683	THE MANUSCRIPT	-0.3679768
-2.911303	THE PARK	-0.30103
-2.613481	THE RECTOR	-0.30103
-2.917743	THE PAGAN	-0.30103
-2.616713	THE SCHOOLS	-0.30103
-2.917743	THE CHAPTER	-0.30103
-2.917743	THE FALL	-0.30103
-2.917743	THE RUPEE	-0.30103
-2.917743	THE HOUSEKEEPER	-0.30103
-2.898704	THE TRAIN	-0.30103
-2.911303	THE APPOINTMENT	-0.30103
-2.886459	THE IMPORTANT	-0.30103
-2.904958	THE BEAUTY	-0.30103
-2.898704	THE SOONER	-0.30103
-2.911303	THE PRETTIEST	-0.30103
-2.917743	THE PRECEPT	-0.30103
-2.616713	THE PRIMITIVE	-0.4771213
-2.610273	THE CHURCH	-0.30103
-2.892538	THE REASON	-0.30103
-2.917743	THE CONSOLATION	-0.30103
-2.911303	THE FAULTS	-0.30103
-2.917743	THE MANAGER	-0.30103
-2.917743	THE INTERMENT	-0.30103
-2.917743	THE MANNA	-0.30103
-2.917743	THE WILDERNESS	-0.30103
-2.607089	THE CHRISTENINGS	-0.30103
-2.917743	THE CATHEDRAL	-0.30103
-2.917743	THE PREVENTION	-0.30103
-2.917743	THE BISHOP	-0.30103
-2.917743	THE ANALOGIES	-0.30103
-2.917743	THE POORER	-0.30103
-2.911303	THE SPRINKLING	-0.30103
-2.917743	THE IMMERSION	-0.30103
-2.917743	THE CEREMONY	-0.30103
-2.917743	THE OUTLYING	-0.30103
-2.917743	THE CARTER	-0.30103
-2.911303	THE PAST	-0.30103
-2.898704	THE TROUBLE	-0.30103
-2.315683	THE FUTURE	-0.69897
-2.904958	THE TASK	-0.30103
-2.315683	THE DOG	-0.69897
-2.613481	THE FOUR	-0.4771213
-2.904958	THE RESULT	-0.30103
-2.917743	THE DOOR	-0.30103
-2.917743	THE VISIBLE	-0.30103
-2.917743	THE CHIEF	-0.30103
-2.616713	THE TH	-0.30103
-2.911303	THE EXCUSE	-0.30103
-2.917743	THE BOX	-0.30103
-2.917743	THE ND	-0.30103
-2.917743	THE ENTRY	-0.30103
-2.917743	THE CHAPS	-0.30103
-2.917743	THE BANKRUPTCY	-0.30103
-2.917743	THE RITES	-0.30103
-2.613481	THE PERIOD	-0.30103
-2.917743	THE DIRECTION	-0.30103
-2.917743	THE RECTORY	-0.30103
-2.613481	THE PROPER	-0.3010299
-2.917743	THE ASSISTANCE	-0.30103
-2.917743	THE ARDUOUS	-0.30103
-2.616713	THE NEWS	-0.30103
-2.917743	THE NOBLEST	-0.30103
-2.898704	THE PHYSICAL	-0.30103
-2.904958	THE TERMS	-0.30103
-2.917743	THE ANNOUNCEMENT	-0.30103
-2.917743	THE LATEST	-0.30103
-2.904958	THE INCIDENT	-0.30103
-2.917743	THE PRIOR	-0.30103
-2.917743	THE VICINITY	-0.30103
-2.917743	THE TOP	-0.30103
-2.917743	THE HILLS	-0.30103
-2.874551	THE IDEA	-0.30103
-2.917743	THE NEWSPAPERS	-0.30103
-2.917743	THE GENTLENESS	-0.30103
-2.917743	THE MACHINATIONS	-0.30103
-2.917743	THE NEIGHBOURHOOD	-0.30103
-2.585429	THE MUFFINS	-0.30103
-2.616713	THE CIRCUMSTANCES	-0.4771213
-2.917743	THE FOLLOWING	-0.30103
-2.613481	THE VITAL	-0.3010299
-2.917743	THE GRAVEST	-0.30103
-2.917743	THE STAMP	-0.30103
-2.917743	THE EQUALITY	-0.30103
-2.917743	THE SEXES	-0.30103
-2.917743	THE VICTIM	-0.30103
-2.917743	THE DOCTORS	-0.30103
-2.917743	THE AIR	-0.30103
-2.616713	THE LARGER	-0.4771213
-2.917743	THE SPORRAN	-0.30103
-2.917743	THE MEASLES	-0.30103
-2.616713	THE FUNDS	-0.4771213
-2.911303	THE QUALITIES	-0.30103
-2.616713	THE CHIN	-0.30103
-2.917743	THE SWEETEST	-0.30103
-2.911303	THE AFFECTIONS	-0.30103
-2.917743	THE RESTRAINTS	-0.30103
-2.917743	THE DESTINY	-0.30103
-2.917743	THE PLATFORM	-0.30103
-2.917743	THE HERETICAL	-0.30103
-2.917743	THE ANABAPTISTS	-0.30103
-2.917743	THE PEW	-0.30103
-2.616713	THE VESTRY	-0.30103
-2.310844	THE BABY	-0.30103
-2.904958	THE PERAMBULATOR	-0.30103
-2.917743	THE MALE	-0.30103
-2.917743	THE ELABORATE	-0.30103
-2.917743	THE METROPOLITAN	-0.30103
-2.917743	THE BASINETTE	-0.30103
-2.917743	THE INJURY	-0.30103
-2.917743	THE UPSETTING	-0.30103
-2.917743	THE STAIN	-0.30103
-2.917743	THE LINING	-0.30103
-2.917743	THE EXPLOSION	-0.30103
-2.917743	THE LOCK	-0.30103
-2.911303	THE SON	-0.30103
-2.917743	THE ELDEST	-0.30103
-2.438464	THE GENERAL	-0.39794
-2.917743	THE INDIAN	-0.30103
-2.616713	THE ARMY	-0.4771213
-2.917743	THE CONTRARY	-0.30103
-1.420632	IS </s>
-1.781997	IS IN	-0.3802113
-1.275216	IS THE	-0.3405385
-2.736281	IS LUXURIOUSLY	-0.30103
-1.185416	IS A	-0.3756636
-2.726553	IS HEARD	-0.30103
-1.983124	IS WHAT	-0.3521825
-1.651037	IS I	-0.30103
-1.892067	IS IT	-0.544068
-1.956369	IS TO	-0.30103
-2.683834	IS SIR	-0.30103
-2.254207	IS FOR	-0.30103
-1.643882	IS THAT	-0.3245111
-1.784026	IS YOUR	-0.30103
-2.334712	IS ANY	-0.30103
-2.278656	IS ONE	-0.30103
-2.501437	IS AS	-0.30103
-2.433614	IS CONCERNED	-0.30103
-1.722545	IS MY	-0.3590219
-2.621664	IS LADY	-0.30103
-2.518972	IS ON	-0.30103
-2.717039	IS LORD	-0.30103
-2.230607	IS WHY	-0.30103
-2.044214	IS AT	-0.4771213
-2.652989	IS MARRIED	-0.30103
-2.258068	IS RARELY	-0.30103
-2.717039	IS MARRIAGE	-0.30103
-1.862192	IS SO	-0.30103
-1.712359	IS VERY	-0.3245111
-2.232659	IS ONLY	-0.39794
-2.22552	IS MUCH	-0.30103
-1.641797	IS NO	-0.3424227
-1.436637	IS NOT	-0.3723859
-2.587764	IS NEVER	-0.30103
-2.414443	IS SURE	-0.4771213
-2.713913	IS SOMEWHAT	-0.30103
-2.650291	IS GOOD	-0.30103
-1.805022	IS ERNEST	-0.4771213
-2.736281	IS CUSTOMARY	-0.30103
-2.375599	IS SOME	-0.30103
-2.346579	IS THERE	-0.30103
-2.433614	IS EXCESSIVELY	-0.30103
-2.717039	IS PART	-0.30103
-1.671955	IS ALL	-0.4522977
-2.68675	IS SUCH	-0.30103
-2.723359	IS COMING	-0.30103
-1.825875	IS PERFECTLY	-0.3309932
-2.565073	IS WELL	-0.30103
-1.719556	IS QUITE	-0.3245111
-2.254809	IS ALMOST	-0.30103
-2.683834	IS ANYTHING	-0.30103
-2.240964	IS NOTHING	-0.30103
-2.695617	IS OVER	-0.30103
-2.736281	IS UNCERTAINTY	-0.30103
-2.650291	IS EVER	-0.30103
-2.40978	IS CERTAINLY	-0.30103
-2.736281	IS DEVOTED	-0.30103
-2.412883	IS TOO	-0.4771213
-2.695617	IS GOING	-0.30103
-2.034695	IS NONSENSE	-0.5440681
-2.346579	IS CECILY	-0.30103
-2.522966	IS HE	-0.30103
-2.332118	IS THIS	-0.30103
-2.701631	IS LET	-0.30103
-2.428742	IS NEARLY	-0.4771213
-2.222496	IS NOW	-0.30103
-2.720187	IS FOUND	-0.30103
-1.888847	IS RATHER	-0.30103
-2.666739	IS AFTER	-0.30103
-2.726553	IS WRITTEN	-0.30103
-2.130141	IS ABSURD	-0.4771213
-2.733014	IS FAST	-0.30103
-2.43036	IS SIMPLY	-0.30103
-2.405166	IS JUST	-0.4771213
-2.203817	IS AN	-0.30103
-2.428742	IS EXACTLY	-0.4771213
-2.364314	IS LIKE	-0.30103
-2.663954	IS UNCLE	-0.30103
-2.650291	IS OUT	-0.30103
-2.102609	IS ALWAYS	-0.30103
-2.403639	IS MOST	-0.30103
-2.416009	IS BETTER	-0.30103
-2.726553	IS VULGAR	-0.30103
-2.675202	IS KIND	-0.30103
-2.71081	IS ENOUGH	-0.30103
-2.592448	IS HIS	-0.30103
-2.19242	IS MISS	-0.39794
-2.411329	IS HARDLY	-0.4771213
-2.726553	IS PLACED	-0.30103
-2.723359	IS HIGH	-0.30103
-2.729772	IS INVALUABLE	-0.30103
-2.406698	IS ENGAGED	-0.4771213
-2.733014	IS SENDING	-0.30103
-2.405166	IS INDEED	-0.4771213
-2.736281	IS ENORMOUSLY	-0.30103
-2.707728	IS THEIR	-0.30103
-2.704669	IS EXTREMELY	-0.30103
-2.736281	IS COMPANY	-0.30103
-2.729772	IS NONE	-0.30103
-2.254809	IS ENTIRELY	-0.30103
-2.736281	IS ACCUSTOMED	-0.30103
-2.717039	IS TERRIBLE	-0.30103
-2.428742	IS STRANGE	-0.30103
-2.416009	IS SOMETHING	-0.4771213
-2.253728	IS STILL	-0.30103
-2.733014	IS WORSE	-0.30103
-2.736281	IS CONSTANTLY	-0.30103
-2.729772	IS CLEARLY	-0.30103
-2.723359	IS PLAIN	-0.30103
-2.71081	IS JOHN	-0.30103
-2.723359	IS ESPECIALLY	-0.30103
-2.720187	IS EVERYTHING	-0.30103
-2.729772	IS GONE	-0.30103
-2.736281	IS RADICALLY	-0.30103
-2.729772	IS SATISFACTORY	-0.30103
-2.729772	IS NECESSARY	-0.30103
-2.726553	IS ACTUALLY	-0.30103
-2.726553	IS BECAUSE	-0.30103
-2.736281	IS IMMATERIAL	-0.30103
-2.720187	IS CLEVER	-0.30103
-2.717039	IS PRETTY	-0.30103
-2.736281	IS AWFULLY	-0.30103
-2.733014	IS FULL	-0.30103
-2.733014	IS LEAVING	-0.30103
-2.736281	IS IRRETRIEVABLY	-0.30103
-2.736281	IS RESPONSIBLE	-0.30103
-2.736281	IS ENJOYMENT	-0.30103
-2.736281	IS LAETITIA	-0.30103
-2.435251	IS OBVIOUSLY	-0.4771213
-2.733014	IS DEAD	-0.30103
-2.720187	IS PECULIARLY	-0.30103
-2.733014	IS OBVIOUS	-0.30103
-2.733014	IS RIDICULOUS	-0.30103
-2.733014	IS GROTESQUE	-0.30103
-2.717039	IS ANYBODY	-0.30103
-2.733014	IS OCCASIONALLY	-0.30103
-2.736281	IS DICTATING	-0.30103
-2.723359	IS WAITING	-0.30103
-2.729772	IS SETTLED	-0.30103
-2.729772	IS WORN	-0.30103
-2.736281	IS ATTENDING	-0.30103
-2.736281	IS SOMEWHERE	-0.30103
-2.425523	IS THIRTY	-0.4771213
-2.736281	IS SADLY	-0.30103
-2.736281	IS UNALTERABLE	-0.30103
-2.736281	IS NIGH	-0.30103
-2.736281	IS UNDOUBTEDLY	-0.30103
-2.733014	IS RESTORED	-0.30103
-2.736281	IS IRREVOCABLE	-0.30103
-0.2962226	LUXURIOUSLY AND	-0.30103
-2.09724	AND IN	-0.30103
-2.469387	AND ALGERNON	-0.30103
-1.406437	AND THE	-0.30103
-2.533773	AND ARTISTICALLY	-0.30103
-2.001844	AND OF	-0.30103
-1.520076	AND A	-0.30103
-1.516442	AND YOU	-0.3357921
-2.121867	AND WHAT	-0.30103
-1.116689	AND I	-0.3640817
-2.339946	AND WAS	-0.30103
-1.727543	AND TO	-0.30103
-1.532906	AND THAT	-0.3679768
-2.0789	AND YOUR	-0.30103
-2.096797	AND ONE	-0.30103
-2.12946	AND WITH	-0.30103
-2.327683	AND AS	-0.30103
-2.033618	AND MY	-0.30103
-2.528256	AND SPEAKING	-0.30103
-2.459916	AND WHEN	-0.30103
-2.517428	AND LORD	-0.30103
-2.359943	AND MR	-0.30103
-2.525524	AND EIGHT	-0.30103
-2.531006	AND DRINK	-0.30103
-2.216398	AND OFTEN	-0.30103
-2.517428	AND MARRIAGE	-0.30103
-1.997887	AND SO	-0.30103
-2.347111	AND VERY	-0.30103
-2.488971	AND MYSELF	-0.30103
-2.496549	AND ONCE	-0.30103
-1.844594	AND NOT	-0.30103
-2.40499	AND NEVER	-0.30103
-2.139422	AND IF	-0.30103
-2.441573	AND THEY	-0.30103
-2.531006	AND RESPONSIBILITY	-0.30103
-2.455257	AND HOW	-0.30103
-2.390779	AND THERE	-0.30103
-2.494008	AND OTHER	-0.30103
-2.459916	AND PEOPLE	-0.30103
-2.423973	AND WHO	-0.30103
-2.338172	AND ALL	-0.30103
-2.531006	AND EXTRAVAGANCE	-0.30103
-2.168357	AND GWENDOLEN	-0.30103
-2.390779	AND QUITE	-0.30103
-2.488971	AND BEING	-0.30103
-2.450648	AND HERE	-0.30103
-2.501675	AND BAD	-0.30103
-2.419683	AND HER	-0.30103
-2.488971	AND THEN	-0.30103
-2.488971	AND CERTAINLY	-0.30103
-2.021983	AND SHE	-0.39794
-1.688279	AND BUTTER	-0.3802112
-2.50948	AND MARRY	-0.30103
-2.499104	AND BEFORE	-0.30103
-2.390779	AND CECILY	-0.30103
-2.143924	AND THIS	-0.4771213
-2.459916	AND MORE	-0.30103
-1.741063	AND NOW	-0.39794
-2.037641	AND AFTER	-0.30103
-2.531006	AND FAST	-0.30103
-2.514762	AND MODERN	-0.30103
-2.491482	AND BACK	-0.30103
-2.522808	AND LIVES	-0.30103
-2.522808	AND SURELY	-0.30103
-2.417553	AND LIKE	-0.30103
-1.910053	AND JACK	-0.69897
-2.491482	AND MAKE	-0.30103
-2.531006	AND SECRET	-0.30103
-2.531006	AND INCOMPARABLE	-0.30103
-2.50948	AND PRAY	-0.30103
-2.167162	AND HIS	-0.30103
-1.888793	AND MISS	-0.4771213
-2.50948	AND TWO	-0.30103
-2.525524	AND PLACED	-0.30103
-2.378957	AND HAS	-0.30103
-2.512113	AND EITHER	-0.30103
-2.531006	AND GETS	-0.30103
-2.522808	AND SIMPLE	-0.30103
-2.531006	AND SENT	-0.30103
-2.20714	AND INDEED	-0.30103
-2.525524	AND WIFE	-0.30103
-2.494008	AND THREE	-0.30103
-2.531006	AND FIFTY	-0.30103
-2.496549	AND THINGS	-0.30103
-2.522808	AND SIT	-0.30103
-2.525524	AND MONEY	-0.30103
-2.522808	AND ITS	-0.30103
-2.50948	AND PUT	-0.30103
-2.517428	AND PROBABLY	-0.30103
-2.52011	AND KINDLY	-0.30103
-2.50948	AND COULDN	-0.30103
-2.533773	AND PREVENTS	-0.30103
-2.533773	AND GAVE	-0.30103
-2.533773	AND ACQUIRE	-0.30103
-2.525524	AND FORM	-0.30103
-2.533773	AND PAYS	-0.30103
-2.525524	AND DRESS	-0.30103
-2.531006	AND IMPROVE	-0.30103
-2.528256	AND SOMETIMES	-0.30103
-2.531006	AND TRIVIALITY	-0.30103
-2.533773	AND GEOLOGY	-0.30103
-2.533773	AND VACILLATING	-0.30103
-2.525524	AND THOUGH	-0.30103
-2.528256	AND AUSTRALIA	-0.30103
-2.533773	AND WHOLESOME	-0.30103
-2.533773	AND FORGIVING	-0.30103
-2.533773	AND FESTAL	-0.30103
-2.228599	AND CHANGE	-0.30103
-2.533773	AND LEAVES	-0.30103
-2.531006	AND ANOTHER	-0.30103
-2.533773	AND OPENLY	-0.30103
-2.528256	AND IMPRESSIONS	-0.30103
-2.232743	AND CONSEQUENTLY	-0.30103
-2.522808	AND WAITING	-0.30103
-2.533773	AND CEREMONIALS	-0.30103
-2.533773	AND HONOUR	-0.30103
-2.533773	AND DECEITFUL	-0.30103
-2.533773	AND ACTED	-0.30103
-2.224494	AND MARKBY	-0.4771213
-2.224494	AND THIRTY	-0.4771213
-2.533773	AND DEVOURED	-0.30103
-2.531006	AND FREE	-0.30103
-2.533773	AND IRRELIGIOUS	-0.30103
-2.533773	AND VALUED	-0.30103
-2.533773	AND HAPPIER	-0.30103
-2.533773	AND DOTING	-0.30103
-2.533773	AND INDIGESTION	-0.30103
-0.3010078	ARTISTICALLY FURNISHED	-0.30103
-0.2651248	FURNISHED </s>
-0.2927495	SOUND OF	-0.30103
-1.572391	OF </s>
-2.229441	OF IN	-0.30103
-2.381239	OF ALGERNON	-0.4771213
-0.8776792	OF THE	-0.3558787
-1.471464	OF A	-0.30103
-1.541903	OF YOU	-0.4101745
-2.288666	OF WHAT	-0.4771213
-1.765538	OF IT	-0.3802112
-1.745132	OF THAT	-0.3802112
-1.942188	OF YOUR	-0.30103
-1.744061	OF ANY	-0.60206
-2.131653	OF ONE	-0.39794
-1.629545	OF MY	-0.3222193
-2.212394	OF LIFE	-0.30103
-2.603604	OF LADY	-0.30103
-2.56198	OF WORTHING	-0.30103
-2.710913	OF DINING	-0.30103
-2.226189	OF ME	-0.30103
-2.714215	OF CHAMPAGNE	-0.30103
-2.619303	OF MUCH	-0.30103
-2.707635	OF FAMILY	-0.30103
-2.537027	OF NO	-0.30103
-1.93112	OF US	-0.30103
-1.93112	OF THEM	-0.845098
-2.704382	OF MORAL	-0.30103
-1.842483	OF ERNEST	-0.5228787
-2.62737	OF HOW	-0.30103
-2.682269	OF PLEASURE	-0.30103
-2.707635	OF SOCIETY	-0.30103
-2.203099	OF SOME	-0.30103
-2.667136	OF LAST	-0.30103
-2.396918	OF OTHER	-0.30103
-2.097488	OF PEOPLE	-0.3679768
-2.710913	OF SHROPSHIRE	-0.30103
-1.289283	OF COURSE	-0.4666557
-2.493039	OF ALL	-0.30103
-2.67012	OF SUCH	-0.30103
-2.414846	OF COMING	-0.30103
-2.682269	OF TEA	-0.30103
-2.57622	OF GWENDOLEN	-0.30103
-2.01326	OF BEING	-0.30103
-1.919797	OF HER	-0.30103
-2.667136	OF ANYTHING	-0.30103
-2.419866	OF ROMANCE	-0.30103
-2.632833	OF EVER	-0.30103
-2.367595	OF TIME	-0.4771213
-2.393737	OF PLACE	-0.30103
-2.406605	OF TRUTH	-0.30103
-2.720896	OF BACHELORS	-0.30103
-2.182154	OF CECILY	-0.39794
-1.906692	OF THIS	-0.30103
-2.375122	OF MORE	-0.4771213
-2.101513	OF THING	-0.3679768
-2.710913	OF YOURS	-0.30103
-2.710913	OF MINE	-0.30103
-2.409883	OF MODERN	-0.30103
-2.667136	OF OLD	-0.30103
-2.335946	OF AN	-0.30103
-2.704382	OF LOOKING	-0.30103
-2.07944	OF HIS	-0.30103
-2.682269	OF GUARDIAN	-0.30103
-2.175391	OF MISS	-0.39794
-2.710913	OF RESPECT	-0.30103
-2.714215	OF REAL	-0.30103
-2.707635	OF HIGH	-0.30103
-2.697948	OF DUTY	-0.30103
-2.694767	OF EITHER	-0.30103
-2.411531	OF HEALTH	-0.30103
-2.714215	OF ADVANCED	-0.30103
-2.714215	OF DOING	-0.30103
-2.408241	OF WOMEN	-0.30103
-2.682269	OF LONDON	-0.30103
-2.406605	OF THEIR	-0.30103
-2.212394	OF HIM	-0.60206
-2.67012	OF WHICH	-0.30103
-2.714215	OF KNOWING	-0.30103
-2.673126	OF THREE	-0.30103
-2.720896	OF BEASTLY	-0.30103
-2.676152	OF THINGS	-0.30103
-2.704382	OF DEATH	-0.30103
-2.419866	OF THOSE	-0.30103
-2.707635	OF ITS	-0.30103
-2.691608	OF MIND	-0.30103
-2.710913	OF OTHERS	-0.30103
-2.714215	OF CONVERSATION	-0.30103
-2.230514	OF AGE	-0.30103
-2.720896	OF IDEALS	-0.30103
-2.704382	OF ABSOLUTE	-0.30103
-2.704382	OF LOST	-0.30103
-2.68536	OF LONG	-0.30103
-2.707635	OF PRACTICE	-0.30103
-2.717543	OF ELIGIBLE	-0.30103
-2.720896	OF BOLTON	-0.30103
-2.717543	OF OPINION	-0.30103
-2.720896	OF VIOLENCE	-0.30103
-2.710913	OF YEAR	-0.30103
-2.714215	OF BELGRAVE	-0.30103
-2.419866	OF RESPECTABILITY	-0.30103
-2.697948	OF CHARACTER	-0.30103
-2.720896	OF COMMERCE	-0.30103
-2.419866	OF ALLOWING	-0.30103
-2.710913	OF FORM	-0.30103
-2.720896	OF CLEVERNESS	-0.30103
-2.717543	OF MEETING	-0.30103
-2.419866	OF APOPLEXY	-0.30103
-2.717543	OF CHILDREN	-0.30103
-2.717543	OF HERTFORDSHIRE	-0.30103
-2.720896	OF SHERRY	-0.30103
-2.720896	OF GREY	-0.30103
-2.717543	OF ROSES	-0.30103
-2.714215	OF FLOWERS	-0.30103
-2.720896	OF DEMEANOUR	-0.30103
-2.717543	OF TRIVIALITY	-0.30103
-2.717543	OF FICTION	-0.30103
-2.714215	OF AUSTRALIA	-0.30103
-2.720896	OF WOE	-0.30103
-2.717543	OF BROTHERS	-0.30103
-2.720896	OF HUMILIATION	-0.30103
-2.720896	OF DISCONTENT	-0.30103
-2.714215	OF GRAVE	-0.30103
-2.720896	OF ADULTS	-0.30103
-2.720896	OF TWINS	-0.30103
-2.720896	OF SORROW	-0.30103
-2.720896	OF PAIN	-0.30103
-2.717543	OF RECONCILIATION	-0.30103
-2.717543	OF ACTION	-0.30103
-2.714215	OF PREMATURE	-0.30103
-2.717543	OF FEBRUARY	-0.30103
-2.717543	OF PAPA	-0.30103
-2.720896	OF UNMIXED	-0.30103
-2.714215	OF FORTY	-0.30103
-2.416513	OF PHYSICAL	-0.30103
-2.418186	OF MENTAL	-0.3010299
-2.720896	OF MANNERS	-0.30103
-2.717543	OF SUGAR	-0.30103
-2.403352	OF MUFFINS	-0.4771213
-2.720896	OF HOSPITALITY	-0.30103
-2.717543	OF SHAME	-0.30103
-2.714215	OF VITAL	-0.30103
-2.720896	OF SELF	-0.30103
-2.717543	OF ENGAGEMENTS	-0.30103
-2.720896	OF SURFACES	-0.30103
-2.714215	OF PROFILE	-0.30103
-2.720896	OF PRINCIPLE	-0.30103
-2.720896	OF MERCENARY	-0.30103
-2.720896	OF FINDING	-0.30103
-2.720896	OF TUTELAGE	-0.30103
-2.720896	OF PROPERTY	-0.30103
-2.720896	OF REPELLENT	-0.30103
-2.720896	OF LADIES	-0.30103
-2.720896	OF BAYSWATER	-0.30103
-2.720896	OF FOLLY	-0.30103
-2.720896	OF PEACE	-0.30103
-2.408292	A ROOM	-0.30103
-2.709322	A HALF	-0.30103
-2.741347	A PIANO	-0.30103
-2.631778	A LIFE	-0.30103
-2.603656	A LADY	-0.30103
-2.400642	A WAY	-0.30103
-2.741347	A PINT	-0.30103
-2.745522	A BACHELOR	-0.30103
-2.242616	A FIRST	-0.39794
-1.452437	A VERY	-0.339948
-2.432087	A PLEASANT	-0.30103
-1.593442	A LITTLE	-0.3357921
-2.686764	A PRESENT	-0.30103
-2.741347	A MISUNDERSTANDING	-0.30103
-2.121981	A YOUNG	-0.4771213
-2.261465	A SOMEWHAT	-0.30103
-2.230917	A REALLY	-0.30103
-2.02607	A GOOD	-0.30103
-2.737213	A CLASS	-0.30103
-2.72504	A MORAL	-0.30103
-2.66532	A TOWN	-0.30103
-2.254639	A PLEASURE	-0.60206
-2.72504	A SLIGHT	-0.30103
-2.412169	A COUNTRY	-0.4771213
-2.262843	A NICE	-0.30103
-2.396867	A PERFECTLY	-0.30103
-2.53651	A WELL	-0.30103
-2.134125	A BAD	-0.3679768
-2.430053	A BUSINESS	-0.30103
-2.440317	A DEFINITE	-0.30103
-2.733117	A DIFFERENT	-0.30103
-1.960435	A MATTER	-0.60206
-2.679498	A PLACE	-0.30103
-2.686764	A RIGHT	-0.30103
-1.839818	A GREAT	-0.3309932
-2.430053	A WHOLE	-0.4771213
-2.683116	A CASE	-0.30103
-2.686764	A WISH	-0.30103
-2.045713	A LARGE	-0.3521826
-2.389414	A MORE	-0.30103
-2.72504	A HARD	-0.30103
-2.654983	A THING	-0.30103
-2.142414	A HUNDRED	-0.4771213
-2.741347	A PRIVATE	-0.30103
-2.733117	A SORT	-0.30103
-2.436183	A CHARMING	-0.30103
-2.436183	A SMALL	-0.30103
-2.032519	A MOST	-0.30103
-2.741347	A PROOF	-0.30103
-2.694154	A BETTER	-0.30103
-2.2684	A DENTIST	-0.39794
-2.737213	A FALSE	-0.30103
-2.444492	A CONFIRMED	-0.30103
-2.741347	A SECRET	-0.30103
-2.139287	A BUNBURYIST	-0.4771213
-2.322751	A MISS	-0.30103
-2.250594	A SERIOUS	-0.30103
-2.729059	A HIGH	-0.30103
-2.438245	A YOUNGER	-0.4771213
-1.652579	A BROTHER	-0.4771213
-2.741347	A DREADFUL	-0.30103
-2.729059	A SIMPLE	-0.30103
-2.737213	A TEDIOUS	-0.30103
-2.745522	A COMPLETE	-0.30103
-2.741347	A UNIVERSITY	-0.30103
-2.442399	A PERMANENT	-0.30103
-2.135153	A WEEK	-0.30103
-2.745522	A MEMBER	-0.30103
-2.260091	A WOMAN	-0.30103
-2.729059	A TABLE	-0.30103
-2.741347	A BORE	-0.30103
-2.71711	A FRIEND	-0.30103
-1.538007	A MAN	-0.3899711
-2.412169	A GIRL	-0.30103
-2.686764	A THREE	-0.30103
-2.444492	A LOT	-0.4771213
-2.262843	A PERFECT	-0.30103
-2.745522	A CUP	-0.30103
-2.741347	A TREAT	-0.30103
-2.43413	A TERRIBLE	-0.30103
-2.444492	A TELEGRAM	-0.30103
-2.745522	A RELAPSE	-0.30103
-2.72504	A MUSIC	-0.30103
-1.663206	A MOMENT	-0.4336554
-2.140327	A FEW	-0.30103
-2.440317	A THOROUGHLY	-0.30103
-2.701672	A DAY	-0.30103
-2.741347	A METAPHYSICAL	-0.30103
-2.713199	A DARLING	-0.30103
-2.745522	A DIVINE	-0.30103
-2.745522	A NOTORIOUS	-0.30103
-2.440317	A SINGLE	-0.30103
-2.243936	A HAND	-0.60206
-2.42401	A LONG	-0.30103
-2.2684	A SURPRISE	-0.30103
-2.745522	A SEAT	-0.30103
-2.721057	A WORK	-0.30103
-2.745522	A DELICATE	-0.30103
-2.440317	A YEAR	-0.30103
-2.737213	A SATISFACTORY	-0.30103
-2.741347	A PROFIT	-0.30103
-2.418049	A HOUSE	-0.30103
-2.71711	A CHARACTER	-0.30103
-2.745522	A LIBERAL	-0.30103
-2.745522	A MISFORTUNE	-0.30103
-2.436183	A GENTLEMAN	-0.30103
-2.741347	A SEASIDE	-0.30103
-2.438245	A CLOAK	-0.4771213
-2.745522	A CONTEMPT	-0.30103
-2.733117	A RAILWAY	-0.30103
-2.72504	A SOCIAL	-0.30103
-2.745522	A RECOGNISED	-0.30103
-2.741347	A DRESSING	-0.30103
-2.745522	A PARCEL	-0.30103
-2.745522	A TRIVET	-0.30103
-2.444492	A GORGON	-0.30103
-2.745522	A MONSTER	-0.30103
-2.745522	A MYTH	-0.30103
-2.737213	A BECOMING	-0.30103
-2.71711	A SWEET	-0.30103
-1.96737	A SEVERE	-0.8450981
-2.737213	A SILLY	-0.30103
-2.745522	A CAPITAL	-0.30103
